{"learner":{"attributes":{"scikit_learn":"{\"_estimator_type\": \"regressor\"}"},"feature_names":["Present_Price","Kms_Driven","Fuel_Type","Seller_Type","Transmission","Owner","Age"],"feature_types":["float","int","int","int","int","int","int"],"gradient_booster":{"model":{"gbtree_model_param":{"num_parallel_tree":"1","num_trees":"100"},"iteration_indptr":[0,1,2,3,4,5,6,7,8,9,10,11,12,13,14,15,16,17,18,19,20,21,22,23,24,25,26,27,28,29,30,31,32,33,34,35,36,37,38,39,40,41,42,43,44,45,46,47,48,49,50,51,52,53,54,55,56,57,58,59,60,61,62,63,64,65,66,67,68,69,70,71,72,73,74,75,76,77,78,79,80,81,82,83,84,85,86,87,88,89,90,91,92,93,94,95,96,97,98,99,100],"tree_info":[0,0,0,0,0,0,0,0,0,0,0,0,0,0,0,0,0,0,0,0,0,0,0,0,0,0,0,0,0,0,0,0,0,0,0,0,0,0,0,0,0,0,0,0,0,0,0,0,0,0,0,0,0,0,0,0,0,0,0,0,0,0,0,0,0,0,0,0,0,0,0,0,0,0,0,0,0,0,0,0,0,0,0,0,0,0,0,0,0,0,0,0,0,0,0,0,0,0,0,0],"trees":[{"base_weights":[-2.1624011E-7,-2.3133132E0,4.3402157E0,-1.163588E0,-5.568672E-1,2.9307923E0,4.5057044E0,3.344247E-2,-1.5995737E0,4.5319047E0,3.4172952E-1,-4.3781546E-1,4.2881617E-1,-1.6926616E0,-2.2033358E-2,3.6230364E0,2.7232888E0,9.9058E-1,-1.2819699E0,8.262399E-1,1.4239845E-2,-2.7641878E-1,-5.615281E-1,2.6618388E0,4.8236504E0,3.6084148E-1,2.441104E0,-2.6147148E-1,-4.8004004E-1,1.4716783E-1,3.4470415E-1,-7.78806E-2,1.8858121E-1,8.225724E-1,5.097499E-2,1.5496193E0,6.239625E-1,1.813533E-1,-9.2541724E-2,8.7745833E-1,1.9796664E-1],"categories":[],"categories_nodes":[],"categories_segments":[],"categories_sizes":[],"default_left":[0,0,0,0,0,0,0,0,0,0,0,0,0,0,0,0,0,0,0,0,0,0,0,0,0,0,0,0,0,0,0,0,0,0,0,0,0,0,0,0,0],"id":0,"left_children":[1,3,5,-1,7,9,-1,11,13,15,17,-1,19,21,-1,23,-1,25,27,29,31,-1,-1,33,35,37,39,-1,-1,-1,-1,-1,-1,-1,-1,-1,-1,-1,-1,-1,-1],"loss_changes":[3.032164E3,5.394697E2,1.5363315E3,0E0,5.7912346E1,3.8811713E2,0E0,3.662951E1,4.705864E0,2.0673645E2,4.025081E1,0E0,8.061596E0,2.69561E0,0E0,4.4861572E1,0E0,2.3782318E1,4.1683197E-2,2.1450634E0,4.369152E0,0E0,0E0,5.5198975E0,8.947845E0,3.448302E0,4.9633217E0,0E0,0E0,0E0,0E0,0E0,0E0,0E0,0E0,0E0,0E0,0E0,0E0,0E0,0E0],"parents":[2147483647,0,0,1,1,2,2,4,4,5,5,7,7,8,8,9,9,10,10,12,12,13,13,15,15,17,17,18,18,19,19,20,20,23,23,24,24,25,25,26,26],"right_children":[2,4,6,-1,8,10,-1,12,14,16,18,-1,20,22,-1,24,-1,26,28,30,32,-1,-1,34,36,38,40,-1,-1,-1,-1,-1,-1,-1,-1,-1,-1,-1,-1,-1,-1],"split_conditions":[8.1E0,3.46E0,2.539E1,-1.163588E0,1E1,1E1,4.5057044E0,5.7E0,1E0,1.468E1,1.4E1,-4.3781546E-1,3.1604E4,1.1E1,-2.2033358E-2,1.1E1,2.7232888E0,1.861E1,9E4,6.49E0,7.49E0,-2.7641878E-1,-5.615281E-1,6.2E4,9E0,1.2E1,6E4,-2.6147148E-1,-4.8004004E-1,1.4716783E-1,3.4470415E-1,-7.78806E-2,1.8858121E-1,8.225724E-1,5.097499E-2,1.5496193E0,6.239625E-1,1.813533E-1,-9.2541724E-2,8.7745833E-1,1.9796664E-1],"split_indices":[0,0,0,0,6,6,0,0,4,0,6,0,1,6,0,0,0,0,1,0,0,0,0,1,6,6,1,0,0,0,0,0,0,0,0,0,0,0,0,0,0],"split_type":[0,0,0,0,0,0,0,0,0,0,0,0,0,0,0,0,0,0,0,0,0,0,0,0,0,0,0,0,0,0,0,0,0,0,0,0,0,0,0,0,0],"sum_hessian":[3E2,1.96E2,1.04E2,1.03E2,9.3E1,9.3E1,1.1E1,6E1,3.3E1,5.7E1,3.6E1,1.2E1,4.8E1,3.1E1,2E0,4.9E1,8E0,2.6E1,1E1,2.4E1,2.4E1,7E0,2.4E1,2.9E1,2E1,1.9E1,7E0,6E0,4E0,1.3E1,1.1E1,1.7E1,7E0,2.8E1,1E0,1.7E1,3E0,1.4E1,5E0,5E0,2E0],"tree_param":{"num_deleted":"0","num_feature":"7","num_nodes":"41","size_leaf_vector":"1"}},{"base_weights":[2.9368797E-2,-5.9903693E-1,8.436638E0,-2.4387085E0,9.7830737E-1,3.5152895E0,2.76002E0,-2.726227E0,-1.2409068E0,1.9032092E0,-2.2308256E-2,-3.4673893E-1,1.3113568E0,-8.722597E-1,-6.390817E-1,-1.0088502E0,-4.4601902E-1,5.9584314E-1,3.2288196E0,4.6791387E-1,-1.0018601E0,7.377999E-2,-6.262741E-1,-3.3400074E-1,-5.3541785E-1,8.129618E-1,-7.020441E-2,2.356244E0,1.2069923E0,1.2088962E-1,1.6872826E0,-1.2593008E0,-2.9738614E-1,-4.4804335E-2,-2.3701902E-1,-4.2562224E-2,-1.7950058E-1,1.0860923E-1,3.1286174E-1,-1.1874875E-1,5.1724173E-2,8.256445E-1,4.9366045E-1,-9.782738E-2,1.6224873E-1,5.569921E-1,1.8503466E-1,-2.0008373E-1,-4.3074787E-1,1.4784337E-2,-1.5457281E-1],"categories":[],"categories_nodes":[],"categories_segments":[],"categories_sizes":[],"default_left":[0,0,0,0,0,0,0,0,0,0,0,0,0,0,0,0,0,0,0,0,0,0,0,0,0,0,0,0,0,0,0,0,0,0,0,0,0,0,0,0,0,0,0,0,0,0,0,0,0,0,0],"id":1,"left_children":[1,3,5,7,9,-1,11,13,15,17,19,21,-1,-1,-1,23,-1,25,27,29,31,-1,33,-1,35,37,39,41,-1,43,45,47,49,-1,-1,-1,-1,-1,-1,-1,-1,-1,-1,-1,-1,-1,-1,-1,-1,-1,-1],"loss_changes":[1.5952897E3,8.1779034E2,3.5878308E2,4.1387695E1,1.407141E2,0E0,4.6565292E1,5.043335E0,4.032135E-2,1.349877E2,3.6003437E1,8.1671256E-1,0E0,0E0,0E0,2.448349E-1,0E0,5.9861383E0,1.7556885E1,2.0953552E1,4.1595097E0,0E0,1.1635208E-1,0E0,3.8915515E-2,2.836338E0,9.3727416E-1,1.3800659E0,0E0,7.684556E0,8.491268E-1,9.2456245E-1,6.2958163E-1,0E0,0E0,0E0,0E0,0E0,0E0,0E0,0E0,0E0,0E0,0E0,0E0,0E0,0E0,0E0,0E0,0E0,0E0],"parents":[2147483647,0,0,1,1,2,2,3,3,4,4,6,6,7,7,8,8,9,9,10,10,11,11,15,15,17,17,18,18,19,19,20,20,22,22,24,24,25,25,26,26,27,27,29,29,30,30,31,31,32,32],"right_children":[2,4,6,8,10,-1,12,14,16,18,20,22,-1,-1,-1,24,-1,26,28,30,32,-1,34,-1,36,38,40,42,-1,44,46,48,50,-1,-1,-1,-1,-1,-1,-1,-1,-1,-1,-1,-1,-1,-1,-1,-1,-1,-1],"split_conditions":[1.864E1,5.7E0,1E1,3.46E0,9E0,3.5152895E0,1E0,1.26E0,3.86E4,8.89E0,1.2E1,8.3E4,1.3113568E0,-8.722597E-1,-6.390817E-1,2.8569E4,-4.4601902E-1,3.5E4,1.204E1,1E1,1.248E1,7.377999E-2,2.283E1,-3.3400074E-1,3.0753E4,5.97E0,7.13E0,8E0,1.2069923E0,7.15E0,6.4532E4,1.3E1,1.4E1,-4.4804335E-2,-2.3701902E-1,-4.2562224E-2,-1.7950058E-1,1.0860923E-1,3.1286174E-1,-1.1874875E-1,5.1724173E-2,8.256445E-1,4.9366045E-1,-9.782738E-2,1.6224873E-1,5.569921E-1,1.8503466E-1,-2.0008373E-1,-4.3074787E-1,1.4784337E-2,-1.5457281E-1],"split_indices":[0,0,6,0,6,0,2,0,1,0,6,1,0,0,0,1,0,1,0,0,0,0,0,0,1,0,0,6,0,0,1,6,6,0,0,0,0,0,0,0,0,0,0,0,0,0,0,0,0,0,0],"split_type":[0,0,0,0,0,0,0,0,0,0,0,0,0,0,0,0,0,0,0,0,0,0,0,0,0,0,0,0,0,0,0,0,0,0,0,0,0,0,0,0,0,0,0,0,0,0,0,0,0,0,0],"sum_hessian":[3E2,2.8E2,2E1,1.29E2,1.51E2,1.2E1,8E0,1.03E2,2.6E1,7.8E1,7.3E1,3E0,5E0,7.6E1,2.7E1,1.6E1,1E1,4E1,3.8E1,4.9E1,2.4E1,1E0,2E0,1.2E1,4E0,3E1,1E1,2E1,1.8E1,3.9E1,1E1,1.7E1,7E0,1E0,1E0,1E0,3E0,1.1E1,1.9E1,4E0,6E0,1.1E1,9E0,1.9E1,2E1,8E0,2E0,5E0,1.2E1,3E0,4E0],"tree_param":{"num_deleted":"0","num_feature":"7","num_nodes":"51","size_leaf_vector":"1"}},{"base_weights":[3.7241712E-2,-3.2988688E-1,7.5869412E0,-1.7364151E0,8.061883E-1,2.9041042E0,3.1823413E0,-1.927895E0,-9.4164324E-1,3.4750554E-1,2.1290112E0,-2.0146616E-1,1.2262293E0,-6.1749446E-1,-4.6257883E-1,-2.9392827E-1,-1.4325811E-1,6.377912E-1,-6.7598915E-1,3.1199222E0,5.4655325E-1,1.6056985E-1,1.2780257E0,-3.1699616E-1,-1.0382127E0,1.1983967E0,2.147299E0,1.2171581E0,-4.4585895E-2,7.0705484E-3,1.6803141E-1,4.6646664E-1,1.7501876E-1,-1.9920422E-1,-3.5614653E-3,-4.76836E-2,-3.2947183E-1,3.950452E-1,8.368992E-1,8.690786E-2,4.434093E-1,1.0595725E-1,-1.1059066E-1],"categories":[],"categories_nodes":[],"categories_segments":[],"categories_sizes":[],"default_left":[0,0,0,0,0,0,0,0,0,0,0,0,0,0,0,0,0,0,0,0,0,0,0,0,0,0,0,0,0,0,0,0,0,0,0,0,0,0,0,0,0,0,0],"id":2,"left_children":[1,3,5,7,9,-1,11,13,15,17,19,-1,-1,-1,-1,-1,-1,21,23,25,27,29,31,33,35,-1,37,39,41,-1,-1,-1,-1,-1,-1,-1,-1,-1,-1,-1,-1,-1,-1],"loss_changes":[8.3678766E2,4.6160135E2,9.828253E1,1.7816193E1,9.634113E1,0E0,2.367366E1,2.0109558E0,9.796143E-3,3.608384E1,6.258586E1,0E0,0E0,0E0,0E0,0E0,0E0,2.8514942E1,3.1818542E0,1.269194E1,6.7934213E0,2.9973235E0,6.7855835E0,1.5803726E0,5.115757E-1,0E0,3.7951355E0,1.5074291E0,1.4191924E0,0E0,0E0,0E0,0E0,0E0,0E0,0E0,0E0,0E0,0E0,0E0,0E0,0E0,0E0],"parents":[2147483647,0,0,1,1,2,2,3,3,4,4,6,6,7,7,8,8,9,9,10,10,17,17,18,18,19,19,20,20,21,21,22,22,23,23,24,24,26,26,27,27,28,28],"right_children":[2,4,6,8,10,-1,12,14,16,18,20,-1,-1,-1,-1,-1,-1,22,24,26,28,30,32,34,36,-1,38,40,42,-1,-1,-1,-1,-1,-1,-1,-1,-1,-1,-1,-1,-1,-1],"split_conditions":[2.315E1,5.59E0,4.8E4,3.45E0,1.25E1,2.9041042E0,2.539E1,1.17E0,4.99E0,1.1E1,1E1,-2.0146616E-1,1.2262293E0,-6.1749446E-1,-4.6257883E-1,-2.9392827E-1,-1.4325811E-1,8.1E0,1.3E1,8E0,6E4,7.5E0,9E0,7.85E0,6.8E0,1.1983967E0,1E0,1.861E1,1.4E1,7.0705484E-3,1.6803141E-1,4.6646664E-1,1.7501876E-1,-1.9920422E-1,-3.5614653E-3,-4.76836E-2,-3.2947183E-1,3.950452E-1,8.368992E-1,8.690786E-2,4.434093E-1,1.0595725E-1,-1.1059066E-1],"split_indices":[0,0,1,0,0,0,0,0,0,6,6,0,0,0,0,0,0,0,6,6,1,0,6,0,0,0,2,0,6,0,0,0,0,0,0,0,0,0,0,0,0,0,0],"split_type":[0,0,0,0,0,0,0,0,0,0,0,0,0,0,0,0,0,0,0,0,0,0,0,0,0,0,0,0,0,0,0,0,0,0,0,0,0,0,0,0,0,0,0],"sum_hessian":[3E2,2.87E2,1.3E1,1.28E2,1.59E2,8E0,5E0,1.02E2,2.6E1,1.19E2,4E1,1E0,4E0,7.3E1,2.9E1,2.3E1,3E0,9.3E1,2.6E1,2.4E1,1.6E1,5.4E1,3.9E1,1.4E1,1.2E1,1.1E1,1.3E1,7E0,9E0,4.1E1,1.3E1,2.7E1,1.2E1,6E0,8E0,1E0,1.1E1,7E0,6E0,2E0,5E0,4E0,5E0],"tree_param":{"num_deleted":"0","num_feature":"7","num_nodes":"43","size_leaf_vector":"1"}},{"base_weights":[4.4688165E-2,-2.9456362E-1,4.5820723E0,-1.2212381E0,4.999249E-1,6.1777163E0,1.2169362E0,-1.357643E0,-6.50596E-1,9.922233E-1,-3.2392688E-2,7.255717E-1,1.9808079E0,-2.4320316E-1,6.4249814E-1,-4.3294844E-1,-1.0739801E0,-1.6858453E-1,-3.5173827E-1,3.0114493E-1,1.6933E0,2.2752887E-1,-5.509401E-1,5.627632E-2,-1.7124625E-1,-1.577804E-1,-3.4302214E-1,4.286577E-1,-1.3701041E-1,1.2073977E0,2.0522926E0,-9.365499E-3,7.809068E-1,-6.7896724E-1,-1.9401148E-1,-2.1495081E-2,4.6819426E-2,1.7976516E-1,7.881315E-2,-7.1720034E-2,1.1722455E-1,4.5379055E-1,2.3442619E-1,4.2294496E-1,8.2568437E-1,-6.611196E-2,6.416555E-2,3.300991E-1,1.3370964E-1,-1.480694E-1,-2.9025352E-1,2.018347E-2,-8.769633E-2],"categories":[],"categories_nodes":[],"categories_segments":[],"categories_sizes":[],"default_left":[0,0,0,0,0,0,0,0,0,0,0,0,0,0,0,0,0,0,0,0,0,0,0,0,0,0,0,0,0,0,0,0,0,0,0,0,0,0,0,0,0,0,0,0,0,0,0,0,0,0,0,0,0],"id":3,"left_children":[1,3,5,7,9,11,13,15,17,19,21,-1,-1,23,-1,-1,25,-1,-1,27,29,31,33,35,-1,-1,-1,37,39,41,43,45,47,49,51,-1,-1,-1,-1,-1,-1,-1,-1,-1,-1,-1,-1,-1,-1,-1,-1,-1,-1],"loss_changes":[4.6468372E2,2.074918E2,1.0524286E2,9.2357025E0,3.986512E1,6.3965454E0,1.1322669E1,9.7294617E-1,5.902138E-1,3.7765495E1,1.0099197E1,0E0,0E0,4.2458278E-1,0E0,0E0,4.6401596E-1,0E0,0E0,2.3494172E0,4.3250427E0,6.561919E0,1.0106869E0,4.947886E-2,0E0,0E0,0E0,7.4830294E-1,6.320267E-1,1.2884579E0,5.564026E0,1.7430084E0,1.1156836E0,4.8541355E-1,2.2516513E-1,0E0,0E0,0E0,0E0,0E0,0E0,0E0,0E0,0E0,0E0,0E0,0E0,0E0,0E0,0E0,0E0,0E0,0E0],"parents":[2147483647,0,0,1,1,2,2,3,3,4,4,5,5,6,6,7,7,8,8,9,9,10,10,13,13,16,16,19,19,20,20,21,21,22,22,23,23,27,27,28,28,29,29,30,30,31,31,32,32,33,33,34,34],"right_children":[2,4,6,8,10,12,14,16,18,20,22,-1,-1,24,-1,-1,26,-1,-1,28,30,32,34,36,-1,-1,-1,38,40,42,44,46,48,50,52,-1,-1,-1,-1,-1,-1,-1,-1,-1,-1,-1,-1,-1,-1,-1,-1,-1,-1],"split_conditions":[1.864E1,5.7E0,1.1E1,3.46E0,9E0,1E0,1E0,1.26E0,1.3E1,8.89E0,1.2E1,7.255717E-1,1.9808079E0,2.315E1,6.4249814E-1,-4.3294844E-1,4.1E3,-1.6858453E-1,-3.5173827E-1,3.5934E4,1.1E1,9.83E0,1.248E1,2.283E1,-1.7124625E-1,-1.577804E-1,-3.4302214E-1,1.65E4,1E0,8E0,1E0,7.13E0,1E1,1.5E1,5.0024E4,-2.1495081E-2,4.6819426E-2,1.7976516E-1,7.881315E-2,-7.1720034E-2,1.1722455E-1,4.5379055E-1,2.3442619E-1,4.2294496E-1,8.2568437E-1,-6.611196E-2,6.416555E-2,3.300991E-1,1.3370964E-1,-1.480694E-1,-2.9025352E-1,2.018347E-2,-8.769633E-2],"split_indices":[0,0,6,0,6,4,2,0,6,0,6,0,0,0,0,0,1,0,0,1,0,0,0,0,0,0,0,1,4,6,2,0,6,6,1,0,0,0,0,0,0,0,0,0,0,0,0,0,0,0,0,0,0],"split_type":[0,0,0,0,0,0,0,0,0,0,0,0,0,0,0,0,0,0,0,0,0,0,0,0,0,0,0,0,0,0,0,0,0,0,0,0,0,0,0,0,0,0,0,0,0,0,0,0,0,0,0,0,0],"sum_hessian":[3E2,2.8E2,2E1,1.29E2,1.51E2,1.3E1,7E0,1.03E2,2.6E1,7.8E1,7.3E1,2E0,1.1E1,3E0,4E0,7.6E1,2.7E1,2.4E1,2E0,4E1,3.8E1,4.9E1,2.4E1,2E0,1E0,4E0,2.3E1,3.1E1,9E0,1.8E1,2E1,3.5E1,1.4E1,1.7E1,7E0,1E0,1E0,1.4E1,1.7E1,8E0,1E0,9E0,9E0,1.2E1,8E0,1.8E1,1.7E1,6E0,8E0,1.2E1,5E0,2E0,5E0],"tree_param":{"num_deleted":"0","num_feature":"7","num_nodes":"53","size_leaf_vector":"1"}},{"base_weights":[4.439083E-2,-1.4103958E-1,4.521927E0,-8.6605185E-1,4.4525006E-1,1.7765816E0,6.4047766E-1,-9.427798E-1,-3.681792E-1,1.2110658E0,1.7350414E-1,-3.347066E-1,-8.2721704E-1,2.9493214E-3,-3.8972592E-1,6.6895497E-1,2.368932E0,6.388719E-3,6.746375E-1,-1.5802597E-1,-2.638201E-1,-3.387562E-2,-3.9936644E-1,3.4678087E-1,1.1233176E0,4.7578803E-1,9.054218E-1,1.6695485E-1,-3.8039598E-1,2.8515863E-1,1.5517372E0,-1.2543233E-1,-5.1761344E-2,1.3216393E-1,3.6931433E-2,3.8719112E-1,1.3980585E-1,-1.4820014E-2,1.1347516E-1,-8.068484E-2,-2.1769018E-1,1.7181556E-1,-5.8152314E-2,5.3260887E-1,-3.5590053E-2],"categories":[],"categories_nodes":[],"categories_segments":[],"categories_sizes":[],"default_left":[0,0,0,0,0,0,0,0,0,0,0,0,0,0,0,0,0,0,0,0,0,0,0,0,0,0,0,0,0,0,0,0,0,0,0,0,0,0,0,0,0,0,0,0,0],"id":4,"left_children":[1,3,5,7,9,-1,-1,11,13,15,17,-1,19,-1,21,23,25,27,29,-1,-1,-1,31,33,35,-1,-1,37,39,41,43,-1,-1,-1,-1,-1,-1,-1,-1,-1,-1,-1,-1,-1,-1],"loss_changes":[2.5054942E2,1.236551E2,2.7459076E1,4.6189804E0,3.329515E1,0E0,0E0,1.3150482E0,1.5858436E-1,2.4778347E1,1.0045343E1,0E0,6.499977E-1,0E0,2.9380322E-3,4.0019712E0,1.8208237E0,5.71502E0,9.805862E0,0E0,0E0,0E0,1.2874603E-4,3.442557E-1,7.182827E-1,0E0,0E0,2.990151E0,8.436818E-1,3.1413202E0,3.5724564E0,0E0,0E0,0E0,0E0,0E0,0E0,0E0,0E0,0E0,0E0,0E0,0E0,0E0,0E0],"parents":[2147483647,0,0,1,1,2,2,3,3,4,4,7,7,8,8,9,9,10,10,12,12,14,14,15,15,16,16,17,17,18,18,22,22,23,23,24,24,27,27,28,28,29,29,30,30],"right_children":[2,4,6,8,10,-1,-1,12,14,16,18,-1,20,-1,22,24,26,28,30,-1,-1,-1,32,34,36,-1,-1,38,40,42,44,-1,-1,-1,-1,-1,-1,-1,-1,-1,-1,-1,-1,-1,-1],"split_conditions":[2.539E1,5.7E0,9E0,4.41E0,8E0,1.7765816E0,6.4047766E-1,8E-1,7E0,1.204E1,1.346E1,-3.347066E-1,5.4E3,2.9493214E-3,1.2E4,8.89E0,1.37E1,1.1E1,1E0,-1.5802597E-1,-2.638201E-1,-3.387562E-2,5.35E0,1.65E4,3.4E4,4.7578803E-1,9.054218E-1,7.5E0,1.5E1,1.2E1,6.9341E4,-1.2543233E-1,-5.1761344E-2,1.3216393E-1,3.6931433E-2,3.8719112E-1,1.3980585E-1,-1.4820014E-2,1.1347516E-1,-8.068484E-2,-2.1769018E-1,1.7181556E-1,-5.8152314E-2,5.3260887E-1,-3.5590053E-2],"split_indices":[0,0,6,0,6,0,0,0,6,0,0,0,1,0,1,0,0,6,2,0,0,0,0,1,1,0,0,0,6,6,1,0,0,0,0,0,0,0,0,0,0,0,0,0,0],"split_type":[0,0,0,0,0,0,0,0,0,0,0,0,0,0,0,0,0,0,0,0,0,0,0,0,0,0,0,0,0,0,0,0,0,0,0,0,0,0,0,0,0,0,0,0,0],"sum_hessian":[3E2,2.89E2,1.1E1,1.29E2,1.6E2,6E0,5E0,1.11E2,1.8E1,4.1E1,1.19E2,4.1E1,7E1,1E0,1.7E1,2.9E1,1.2E1,9E1,2.9E1,1.2E1,5.8E1,1E0,1.6E1,1.8E1,1.1E1,7E0,5E0,6.4E1,2.6E1,2.1E1,8E0,1.4E1,2E0,1.2E1,6E0,8E0,3E0,3.2E1,3.2E1,2.1E1,5E0,1.3E1,8E0,7E0,1E0],"tree_param":{"num_deleted":"0","num_feature":"7","num_nodes":"45","size_leaf_vector":"1"}},{"base_weights":[4.416543E-2,-9.347398E-2,3.3667705E0,-4.2807657E-1,5.766949E-1,7.2665185E-1,2.0636022E0,-6.667008E-1,-1.009201E-1,9.8972684E-1,1.3443878E-1,-5.6454724E-1,-2.387896E-1,5.044801E-2,-3.700187E-1,7.644398E-1,2.0769289E0,2.6386988E-1,-3.2490858E-1,-1.8408626E-1,-3.384436E-1,1.8495621E-1,-5.5314727E-2,-3.8738334E-1,2.0033313E-2,5.510899E-1,1.030143E0,6.664745E-1,1.5965396E-1,1.08298585E-1,5.9191614E-1,-1.4351386E-1,-6.064709E-1,-1.10841185E-1,-5.0552525E-2,1.800211E-2,1.0616531E-1,-4.110605E-2,5.901478E-2,-1.199214E-1,-6.2178974E-3,1.9235183E-1,4.318545E-2,2.1466328E-1,5.857059E-1,1.6065975E-1,1.5809573E-2,9.0703994E-2,2.8105327E-1,-6.376635E-2,-6.400377E-3,-2.2242065E-1,-3.0251564E-2],"categories":[],"categories_nodes":[],"categories_segments":[],"categories_sizes":[],"default_left":[0,0,0,0,0,0,0,0,0,0,0,0,0,0,0,0,0,0,0,0,0,0,0,0,0,0,0,0,0,0,0,0,0,0,0,0,0,0,0,0,0,0,0,0,0,0,0,0,0,0,0,0,0],"id":5,"left_children":[1,3,5,7,9,-1,-1,11,13,15,17,19,-1,21,23,25,27,29,31,-1,33,35,37,39,-1,41,43,-1,-1,45,47,49,51,-1,-1,-1,-1,-1,-1,-1,-1,-1,-1,-1,-1,-1,-1,-1,-1,-1,-1,-1,-1],"loss_changes":[1.3796844E2,6.5276535E1,2.3146698E1,1.5077801E1,1.7585533E1,0E0,0E0,1.029583E0,3.3995013E0,1.0658943E1,2.9395175E0,5.2464294E-1,0E0,7.784325E-1,2.534132E-1,1.869873E0,6.0533524E-1,1.8752105E0,4.7477615E-1,0E0,1.1557221E-2,4.8534292E-1,6.6531456E-1,1.2308264E-1,0E0,8.612838E-1,3.8252754E0,0E0,0E0,6.131419E-1,9.153161E-1,6.2947914E-2,1.9814062E-1,0E0,0E0,0E0,0E0,0E0,0E0,0E0,0E0,0E0,0E0,0E0,0E0,0E0,0E0,0E0,0E0,0E0,0E0,0E0,0E0],"parents":[2147483647,0,0,1,1,2,2,3,3,4,4,7,7,8,8,9,9,10,10,11,11,13,13,14,14,15,15,16,16,17,17,18,18,20,20,21,21,22,22,23,23,25,25,26,26,29,29,30,30,31,31,32,32],"right_children":[2,4,6,8,10,-1,-1,12,14,16,18,20,-1,22,24,26,28,30,32,-1,34,36,38,40,-1,42,44,-1,-1,46,48,50,52,-1,-1,-1,-1,-1,-1,-1,-1,-1,-1,-1,-1,-1,-1,-1,-1,-1,-1,-1,-1],"split_conditions":[2.539E1,8.01E0,3.623E1,4.41E0,9E0,7.2665185E-1,2.0636022E0,1E1,1E1,1.37E1,1.4E1,1.75E0,-2.387896E-1,2.7E4,1E0,1E0,2.35E4,1.4E1,9.2233E4,-1.8408626E-1,3.76E0,6.49E0,4.1E4,1E0,2.0033313E-2,3.1E4,1.346E1,6.664745E-1,1.5965396E-1,3.3E4,1E0,7.7427E4,1.97176E5,-1.10841185E-1,-5.0552525E-2,1.800211E-2,1.0616531E-1,-4.110605E-2,5.901478E-2,-1.199214E-1,-6.2178974E-3,1.9235183E-1,4.318545E-2,2.1466328E-1,5.857059E-1,1.6065975E-1,1.5809573E-2,9.0703994E-2,2.8105327E-1,-6.376635E-2,-6.400377E-3,-2.2242065E-1,-3.0251564E-2],"split_indices":[0,0,0,0,6,0,0,6,6,0,6,0,0,1,4,2,1,0,1,0,0,0,1,5,0,1,0,0,0,1,2,1,1,0,0,0,0,0,0,0,0,0,0,0,0,0,0,0,0,0,0,0,0],"split_type":[0,0,0,0,0,0,0,0,0,0,0,0,0,0,0,0,0,0,0,0,0,0,0,0,0,0,0,0,0,0,0,0,0,0,0,0,0,0,0,0,0,0,0,0,0,0,0,0,0,0,0,0,0],"sum_hessian":[3E2,2.89E2,1.1E1,1.93E2,9.6E1,1E1,1E0,1.11E2,8.2E1,4.9E1,4.7E1,6.5E1,4.6E1,5.3E1,2.9E1,4.2E1,7E0,3.7E1,1E1,5.2E1,1.3E1,2.3E1,3E1,2.8E1,1E0,2.5E1,1.7E1,6E0,1E0,2.6E1,1.1E1,7E0,3E0,1E1,3E0,1.4E1,9E0,2.3E1,7E0,2.7E1,1E0,2E1,5E0,1.4E1,3E0,2E0,2.4E1,7E0,4E0,4E0,3E0,2E0,1E0],"tree_param":{"num_deleted":"0","num_feature":"7","num_nodes":"53","size_leaf_vector":"1"}},{"base_weights":[4.5299105E-2,-6.0124457E-2,2.5892603E0,-3.0247986E-1,4.2520618E-1,1.7615799E0,1.7540618E0,-4.6069378E-1,-4.5304514E-2,9.282719E-1,2.0761034E-1,6.7017376E-1,2.9869518E-1,-4.1556877E-1,-2.0360905E-1,2.7770981E-2,-3.394579E-1,5.2510196E-1,1.3840886E0,4.2832416E-1,1.6282627E-2,-4.8370588E-1,-2.930984E-1,1.3717788E-1,-6.921602E-2,-5.0508022E-2,-3.800265E-1,1.774071E-1,6.551909E-1,5.471207E-1,9.8605275E-1,2.4684402E-1,6.745764E-1,-9.173282E-2,2.897508E-1,-1.6868606E-1,-1.2567475E-1,-6.2027898E-2,-1.05124965E-1,1.0722286E-2,6.520847E-2,-3.1984434E-2,1.0209294E-1,-3.8515665E-2,1.5787054E-2,-1.2262775E-1,-5.2852035E-3,1.8504775E-1,-1.015254E-2,2.7987924E-1,6.658876E-2,1.5999661E-1,5.14122E-1,8.991127E-2,-1.1362496E-1,8.8238634E-2,3.2082313E-1,-9.105624E-3,-1.7793652E-1,-2.1658564E-2,1.1346149E-1],"categories":[],"categories_nodes":[],"categories_segments":[],"categories_sizes":[],"default_left":[0,0,0,0,0,0,0,0,0,0,0,0,0,0,0,0,0,0,0,0,0,0,0,0,0,0,0,0,0,0,0,0,0,0,0,0,0,0,0,0,0,0,0,0,0,0,0,0,0,0,0,0,0,0,0,0,0,0,0,0,0],"id":6,"left_children":[1,3,5,7,9,11,-1,13,15,17,19,-1,-1,21,-1,23,25,27,29,31,33,35,37,39,41,43,45,47,49,-1,51,53,55,57,59,-1,-1,-1,-1,-1,-1,-1,-1,-1,-1,-1,-1,-1,-1,-1,-1,-1,-1,-1,-1,-1,-1,-1,-1,-1,-1],"loss_changes":[8.0881905E1,3.423914E1,2.2055412E1,7.8727417E0,1.0425386E1,1.75531E0,0E0,8.984413E-1,1.6215824E0,4.6025887E0,2.9068043E0,0E0,0E0,7.0939445E-1,0E0,6.5676874E-1,1.5663993E-1,6.5269613E-1,4.766407E-1,1.2635608E0,1.1490537E0,9.029102E-2,1.20550156E-1,2.281053E-1,5.41702E-1,3.0850984E-2,1.2816763E-1,5.7783484E-1,1.2368217E0,0E0,2.0510416E0,7.748933E-1,1.6382341E0,8.4371495E-1,3.7947643E-1,0E0,0E0,0E0,0E0,0E0,0E0,0E0,0E0,0E0,0E0,0E0,0E0,0E0,0E0,0E0,0E0,0E0,0E0,0E0,0E0,0E0,0E0,0E0,0E0,0E0,0E0],"parents":[2147483647,0,0,1,1,2,2,3,3,4,4,5,5,7,7,8,8,9,9,10,10,13,13,15,15,16,16,17,17,18,18,19,19,20,20,21,21,22,22,23,23,24,24,25,25,26,26,27,27,28,28,30,30,31,31,32,32,33,33,34,34],"right_children":[2,4,6,8,10,12,-1,14,16,18,20,-1,-1,22,-1,24,26,28,30,32,34,36,38,40,42,44,46,48,50,-1,52,54,56,58,60,-1,-1,-1,-1,-1,-1,-1,-1,-1,-1,-1,-1,-1,-1,-1,-1,-1,-1,-1,-1,-1,-1,-1,-1,-1,-1],"split_conditions":[2.539E1,8.01E0,3.623E1,4.6E0,8E0,9E0,1.7540618E0,1.3E1,1.2E1,1.204E1,1E1,6.7017376E-1,2.9869518E-1,1.4E0,-2.0360905E-1,3.2322E4,4.89E0,8.89E0,7E0,1.346E1,1E0,7.3E-1,8E0,5.97E0,1E0,2.2671E4,1E0,8.12E0,9.85E0,5.471207E-1,1E0,1.235E1,1E0,9.2233E4,4.3535E4,-1.6868606E-1,-1.2567475E-1,-6.2027898E-2,-1.05124965E-1,1.0722286E-2,6.520847E-2,-3.1984434E-2,1.0209294E-1,-3.8515665E-2,1.5787054E-2,-1.2262775E-1,-5.2852035E-3,1.8504775E-1,-1.015254E-2,2.7987924E-1,6.658876E-2,1.5999661E-1,5.14122E-1,8.991127E-2,-1.1362496E-1,8.8238634E-2,3.2082313E-1,-9.105624E-3,-1.7793652E-1,-2.1658564E-2,1.1346149E-1],"split_indices":[0,0,0,0,6,6,0,6,6,0,6,0,0,0,0,1,0,0,6,0,2,0,6,0,4,1,5,0,0,0,2,0,2,1,1,0,0,0,0,0,0,0,0,0,0,0,0,0,0,0,0,0,0,0,0,0,0,0,0,0,0],"split_type":[0,0,0,0,0,0,0,0,0,0,0,0,0,0,0,0,0,0,0,0,0,0,0,0,0,0,0,0,0,0,0,0,0,0,0,0,0,0,0,0,0,0,0,0,0,0,0,0,0,0,0,0,0,0,0,0,0,0,0,0,0],"sum_hessian":[3E2,2.89E2,1.1E1,1.93E2,9.6E1,1E1,1E0,1.19E2,7.4E1,2.8E1,6.8E1,5E0,5E0,1.01E2,1.8E1,6E1,1.4E1,1.6E1,1.2E1,3.1E1,3.7E1,6.3E1,3.8E1,2.8E1,3.2E1,2E0,1.2E1,5E0,1.1E1,4E0,8E0,1.9E1,1.2E1,2.7E1,1E1,2.5E1,3.8E1,1.7E1,2.1E1,1.3E1,1.5E1,3E1,2E0,1E0,1E0,1.1E1,1E0,1E0,4E0,6E0,5E0,6E0,2E0,1.8E1,1E0,7E0,5E0,2.5E1,2E0,2E0,8E0],"tree_param":{"num_deleted":"0","num_feature":"7","num_nodes":"61","size_leaf_vector":"1"}},{"base_weights":[4.5283824E-2,-3.7387192E-2,2.039393E0,-2.3505044E-1,2.834846E-1,1.321185E0,1.4909524E0,-3.2802832E-1,-4.8289813E-2,6.8544686E-1,1.3296814E-1,5.0263035E-1,2.2402139E-1,-3.0033073E-1,-1.6568378E-1,-3.647557E-3,-3.4358883E-1,3.5070053E-1,3.475024E-1,-3.429922E-2,3.585643E-1,-3.3419734E-1,-1.7936425E-1,7.3680766E-2,-6.796624E-2,-1.1651834E-1,-4.492414E-3,5.967599E-1,1.9123004E-1,1.7958347E-2,-3.429447E-1,1.7933805E-1,7.886961E-1,-8.398646E-2,-1.186601E-1,-2.796496E-2,-7.0897445E-2,1.2793279E-2,6.77884E-2,-3.7949868E-2,-2.9988767E-4,2.3510462E-1,-7.87159E-2,-9.842942E-2,7.8554675E-2,-3.134275E-2,3.1617787E-2,-5.862727E-2,-1.423492E-1,6.6928536E-2,-6.914931E-2,3.322482E-1,7.451983E-2],"categories":[],"categories_nodes":[],"categories_segments":[],"categories_sizes":[],"default_left":[0,0,0,0,0,0,0,0,0,0,0,0,0,0,0,0,0,0,0,0,0,0,0,0,0,0,0,0,0,0,0,0,0,0,0,0,0,0,0,0,0,0,0,0,0,0,0,0,0,0,0,0,0],"id":7,"left_children":[1,3,5,7,9,11,-1,13,15,17,19,-1,-1,21,-1,23,25,27,-1,29,31,33,35,37,39,-1,-1,41,43,45,47,49,51,-1,-1,-1,-1,-1,-1,-1,-1,-1,-1,-1,-1,-1,-1,-1,-1,-1,-1,-1,-1],"loss_changes":[4.969761E1,1.8459757E1,1.868998E1,3.1097898E0,6.6245728E0,9.873619E-1,0E0,5.794792E-1,8.028984E-1,4.342758E0,3.1065583E0,0E0,0E0,3.866005E-1,0E0,2.7358523E-1,1.1197406E-1,6.314268E-1,0E0,7.803537E-1,2.5567389E0,1.6873837E-1,1.0555315E-1,1.0852045E-1,1.1746687E-1,0E0,0E0,1.3297813E0,5.6267864E-1,4.6061862E-1,4.3118656E-2,5.176862E-1,1.4473534E0,0E0,0E0,0E0,0E0,0E0,0E0,0E0,0E0,0E0,0E0,0E0,0E0,0E0,0E0,0E0,0E0,0E0,0E0,0E0,0E0],"parents":[2147483647,0,0,1,1,2,2,3,3,4,4,5,5,7,7,8,8,9,9,10,10,13,13,15,15,16,16,17,17,19,19,20,20,21,21,22,22,23,23,24,24,27,27,28,28,29,29,30,30,31,31,32,32],"right_children":[2,4,6,8,10,12,-1,14,16,18,20,-1,-1,22,-1,24,26,28,-1,30,32,34,36,38,40,-1,-1,42,44,46,48,50,52,-1,-1,-1,-1,-1,-1,-1,-1,-1,-1,-1,-1,-1,-1,-1,-1,-1,-1,-1,-1],"split_conditions":[2.539E1,7.6E0,3.623E1,4.6E0,2.35E4,9E0,1.4909524E0,1.5E1,5.6E4,1.204E1,1E0,5.0263035E-1,2.2402139E-1,1.78E0,-1.6568378E-1,9E0,1E0,7E0,3.475024E-1,1.6E1,1.346E1,2.0114E4,8E0,1E0,6.49E0,-1.1651834E-1,-4.492414E-3,9.85E0,4.1E3,9.94E0,9.2233E4,1.18E1,5.9E4,-8.398646E-2,-1.186601E-1,-2.796496E-2,-7.0897445E-2,1.2793279E-2,6.77884E-2,-3.7949868E-2,-2.9988767E-4,2.3510462E-1,-7.87159E-2,-9.842942E-2,7.8554675E-2,-3.134275E-2,3.1617787E-2,-5.862727E-2,-1.423492E-1,6.6928536E-2,-6.914931E-2,3.322482E-1,7.451983E-2],"split_indices":[0,0,0,0,1,6,0,6,1,0,2,0,0,0,0,6,5,6,0,6,0,1,6,4,0,0,0,0,1,0,1,0,1,0,0,0,0,0,0,0,0,0,0,0,0,0,0,0,0,0,0,0,0],"split_type":[0,0,0,0,0,0,0,0,0,0,0,0,0,0,0,0,0,0,0,0,0,0,0,0,0,0,0,0,0,0,0,0,0,0,0,0,0,0,0,0,0,0,0,0,0,0,0,0,0,0,0,0,0],"sum_hessian":[3E2,2.89E2,1.1E1,1.79E2,1.1E2,1E1,1E0,1.19E2,6E1,2.9E1,8.1E1,5E0,5E0,1.08E2,1.1E1,5.3E1,7E0,1.8E1,1.1E1,4.7E1,3.4E1,8.3E1,2.5E1,2.4E1,2.9E1,6E0,1E0,6E0,1.2E1,4.1E1,6E0,2.5E1,9E0,4.7E1,3.6E1,1.1E1,1.4E1,2.1E1,3E0,1.5E1,1.4E1,5E0,1E0,1E0,1.1E1,1.7E1,2.4E1,4E0,2E0,2.3E1,2E0,5E0,4E0],"tree_param":{"num_deleted":"0","num_feature":"7","num_nodes":"53","size_leaf_vector":"1"}},{"base_weights":[3.953788E-2,1.1507238E-2,1.2673097E0,-9.3277186E-2,5.249307E-1,-2.335131E-1,3.5895236E-2,2.2021914E-1,9.165861E-1,-1.5498532E-1,-2.738103E-1,2.7695116E-1,-2.0761715E-2,3.4105894E-1,1.1414231E-1,1.2738398E0,4.4352865E-1,-1.8437958E-1,-3.9546322E-2,-2.5191402E-1,-1.3797402E-1,1.19824395E-1,5.429738E-1,-8.537954E-2,9.881748E-2,1.819274E-1,-1.6472419E-1,3.9624813E-1,1.1354714E-1,-7.55105E-2,1.7017823E-1,-7.081248E-2,-4.48227E-2,-1.8109173E-2,2.2171784E-2,-1.0172304E-1,-6.4974174E-2,9.168583E-3,1.5785858E-1,4.1865066E-2,1.7278741E-1,-1.2319318E-2,-7.7912085E-2,-4.350495E-2,4.7566418E-2,3.0066442E-2,1.6349256E-1,-6.9644456E-3,-5.6514934E-2,-5.3911045E-2,1.9931316E-2],"categories":[],"categories_nodes":[],"categories_segments":[],"categories_sizes":[],"default_left":[0,0,0,0,0,0,0,0,0,0,0,0,0,0,0,0,0,0,0,0,0,0,0,0,0,0,0,0,0,0,0,0,0,0,0,0,0,0,0,0,0,0,0,0,0,0,0,0,0,0,0],"id":8,"left_children":[1,3,-1,5,7,9,11,13,15,17,19,21,23,-1,25,27,29,31,33,35,-1,37,39,41,43,45,47,-1,-1,49,-1,-1,-1,-1,-1,-1,-1,-1,-1,-1,-1,-1,-1,-1,-1,-1,-1,-1,-1,-1,-1],"loss_changes":[3.5259716E1,1.61886E1,0E0,4.537035E0,5.8845873E0,3.3729744E-1,1.7948817E0,2.7872763E0,3.1530514E0,1.3861787E-1,2.0198822E-1,9.7992074E-1,8.3522034E-1,0E0,5.592515E-1,4.919052E-3,7.49274E-1,2.6159406E-2,2.8079268E-2,1.4830542E-1,0E0,6.005706E-1,3.9384127E-2,5.301094E-1,5.764998E-1,6.2763435E-1,1.5714481E-2,0E0,0E0,5.630911E-2,0E0,0E0,0E0,0E0,0E0,0E0,0E0,0E0,0E0,0E0,0E0,0E0,0E0,0E0,0E0,0E0,0E0,0E0,0E0,0E0,0E0],"parents":[2147483647,0,0,1,1,3,3,4,4,5,5,6,6,7,7,8,8,9,9,10,10,11,11,12,12,14,14,15,15,16,16,17,17,18,18,19,19,21,21,22,22,23,23,24,24,25,25,26,26,29,29],"right_children":[2,4,-1,6,8,10,12,14,16,18,20,22,24,-1,26,28,30,32,34,36,-1,38,40,42,44,46,48,-1,-1,50,-1,-1,-1,-1,-1,-1,-1,-1,-1,-1,-1,-1,-1,-1,-1,-1,-1,-1,-1,-1,-1],"split_conditions":[3.623E1,1.346E1,1.2673097E0,4.6E0,1E0,8E0,1.66E4,7E0,9E0,1.82E0,1.6E1,1.45E4,1E0,3.4105894E-1,1.4E1,4.8E4,1.468E1,5.8E-1,2.587E4,7.3E-1,-1.3797402E-1,1E0,6.76E0,5.6E4,6.8E0,1E0,6.3E4,3.9624813E-1,1.1354714E-1,1.36E1,1.7017823E-1,-7.081248E-2,-4.48227E-2,-1.8109173E-2,2.2171784E-2,-1.0172304E-1,-6.4974174E-2,9.168583E-3,1.5785858E-1,4.1865066E-2,1.7278741E-1,-1.2319318E-2,-7.7912085E-2,-4.350495E-2,4.7566418E-2,3.0066442E-2,1.6349256E-1,-6.9644456E-3,-5.6514934E-2,-5.3911045E-2,1.9931316E-2],"split_indices":[0,0,0,0,2,6,1,6,6,0,6,1,2,0,6,1,0,0,1,0,0,2,0,1,0,4,1,0,0,0,0,0,0,0,0,0,0,0,0,0,0,0,0,0,0,0,0,0,0,0,0],"split_type":[0,0,0,0,0,0,0,0,0,0,0,0,0,0,0,0,0,0,0,0,0,0,0,0,0,0,0,0,0,0,0,0,0,0,0,0,0,0,0,0,0,0,0,0,0,0,0,0,0,0,0],"sum_hessian":[3E2,2.99E2,1E0,2.49E2,5E1,1.19E2,1.3E2,2.9E1,2.1E1,4.2E1,7.7E1,2.4E1,1.06E2,2E0,2.7E1,1.1E1,1E1,3.3E1,9E0,7.1E1,6E0,1.6E1,8E0,6.9E1,3.7E1,2.2E1,5E0,1E1,1E0,2E0,8E0,1.1E1,2.2E1,8E0,1E0,1.8E1,5.3E1,1.4E1,2E0,1E0,7E0,5.6E1,1.3E1,7E0,3E1,1.9E1,3E0,1E0,4E0,1E0,1E0],"tree_param":{"num_deleted":"0","num_feature":"7","num_nodes":"51","size_leaf_vector":"1"}},{"base_weights":[3.519711E-2,1.1376363E-2,1.0772133E0,-6.577701E-2,3.893561E-1,-1.6692787E-1,2.7382383E-2,1.6985801E-1,6.709737E-1,-1.5398839E-1,-3.538097E-1,9.369808E-2,-9.313285E-2,5.822419E-1,1.9035008E-2,2.8025132E-1,3.2285172E-1,-2.1620558E-1,-1.2368704E-1,-6.2254302E-2,-1.4390963E-1,2.3760015E-1,3.648279E-2,1.0979028E-1,-1.1456269E-1,2.7284718E-1,3.2157722E-1,-2.3141575E-1,6.817341E-2,-6.418411E-2,1.2479738E-1,-4.860816E-2,-7.299536E-2,-1.4457902E-2,-4.0946722E-2,3.5357088E-2,1.18036486E-1,-6.225267E-3,4.2446174E-2,-2.519796E-2,5.3770337E-2,-4.6053525E-2,-3.86149E-3,-6.160031E-2,1.9091E-1,1.7094612E-4,-9.268027E-2,1.5098572E-1,-2.4398167E-3,-4.5824397E-2,1.6941547E-2],"categories":[],"categories_nodes":[],"categories_segments":[],"categories_sizes":[],"default_left":[0,0,0,0,0,0,0,0,0,0,0,0,0,0,0,0,0,0,0,0,0,0,0,0,0,0,0,0,0,0,0,0,0,0,0,0,0,0,0,0,0,0,0,0,0,0,0,0,0,0,0],"id":9,"left_children":[1,3,-1,5,7,9,11,13,15,17,19,21,23,25,27,-1,29,31,33,-1,-1,35,37,39,41,-1,43,45,47,49,-1,-1,-1,-1,-1,-1,-1,-1,-1,-1,-1,-1,-1,-1,-1,-1,-1,-1,-1,-1,-1],"loss_changes":[2.5452341E1,8.774335E0,0E0,2.3603592E0,3.03857E0,2.3569608E-1,1.0556852E0,1.8548263E0,1.7141457E0,1.8817854E-1,2.937448E-2,6.9117045E-1,2.1696246E-1,3.8994598E-1,2.9883164E-1,0E0,4.2323172E-1,1.3456225E-2,6.9773674E-2,0E0,0E0,4.015298E-1,3.75543E-1,8.2340136E-2,1.6833723E-1,0E0,1.1258649E0,7.21087E-2,6.681279E-1,4.068323E-2,0E0,0E0,0E0,0E0,0E0,0E0,0E0,0E0,0E0,0E0,0E0,0E0,0E0,0E0,0E0,0E0,0E0,0E0,0E0,0E0,0E0],"parents":[2147483647,0,0,1,1,3,3,4,4,5,5,6,6,7,7,8,8,9,9,10,10,11,11,12,12,13,13,14,14,16,16,17,17,18,18,21,21,22,22,23,23,24,24,26,26,27,27,28,28,29,29],"right_children":[2,4,-1,6,8,10,12,14,16,18,20,22,24,26,28,-1,30,32,34,-1,-1,36,38,40,42,-1,44,46,48,50,-1,-1,-1,-1,-1,-1,-1,-1,-1,-1,-1,-1,-1,-1,-1,-1,-1,-1,-1,-1,-1],"split_conditions":[3.623E1,1.346E1,1.0772133E0,4.6E0,1E0,6.0076E4,1E1,2.3E4,9E0,7.87E-1,1.17E0,1.66E4,4.89E0,7E0,3E4,2.8025132E-1,1.468E1,1.5001E4,5.4E3,-6.2254302E-2,-1.4390963E-1,8.5E0,4.1E4,2.2671E4,1E0,2.7284718E-1,1.2479E4,2.5E4,8E0,1.36E1,1.2479738E-1,-4.860816E-2,-7.299536E-2,-1.4457902E-2,-4.0946722E-2,3.5357088E-2,1.18036486E-1,-6.225267E-3,4.2446174E-2,-2.519796E-2,5.3770337E-2,-4.6053525E-2,-3.86149E-3,-6.160031E-2,1.9091E-1,1.7094612E-4,-9.268027E-2,1.5098572E-1,-2.4398167E-3,-4.5824397E-2,1.6941547E-2],"split_indices":[0,0,0,0,2,1,6,1,6,0,0,1,0,6,1,0,0,1,1,0,0,0,1,1,2,0,1,1,6,0,0,0,0,0,0,0,0,0,0,0,0,0,0,0,0,0,0,0,0,0,0],"split_type":[0,0,0,0,0,0,0,0,0,0,0,0,0,0,0,0,0,0,0,0,0,0,0,0,0,0,0,0,0,0,0,0,0,0,0,0,0,0,0,0,0,0,0,0,0,0,0,0,0,0,0],"sum_hessian":[3E2,2.99E2,1E0,2.49E2,5E1,1.19E2,1.3E2,2.9E1,2.1E1,1.13E2,6E0,8.4E1,4.6E1,7E0,2.2E1,1.1E1,1E1,3.5E1,7.8E1,4E0,2E0,2.3E1,6.1E1,4E0,4.2E1,2E0,5E0,3E0,1.9E1,2E0,8E0,1.4E1,2.1E1,1.2E1,6.6E1,1.4E1,9E0,4E1,2.1E1,1E0,3E0,3E1,1.2E1,2E0,3E0,1E0,2E0,2E0,1.7E1,1E0,1E0],"tree_param":{"num_deleted":"0","num_feature":"7","num_nodes":"51","size_leaf_vector":"1"}},{"base_weights":[3.0274749E-2,1.00283045E-2,9.1563123E-1,-4.6903525E-2,2.8890926E-1,-1.2004261E-1,2.045215E-2,3.847344E-1,-5.4583628E-2,-1.0934457E-1,-2.7711877E-1,1.05575554E-1,-4.2539466E-2,2.3774034E-1,6.1387515E-1,3.427967E-2,-1.23562865E-1,-1.35872E-1,-6.56498E-2,-4.7313266E-2,-1.1512771E-1,4.0041357E-2,2.8203294E-1,-2.60383E-2,-3.3305085E-1,1.3226876E-1,4.585178E-1,7.0323086E-1,1.9233918E-1,-5.9097093E-2,-5.6811247E-2,-3.2037284E-2,-4.905684E-2,2.468175E-2,-2.126445E-2,2.215664E-2,-5.2545764E-2,1.3314766E-1,3.7457183E-2,-5.636406E-2,7.899341E-4,-3.326011E-3,-1.31003E-1,1.7952906E-1,2.1937435E-2,2.3647343E-1,3.0909806E-2,1.2454305E-1,2.549104E-1,1.0383368E-2,7.001343E-2,-3.4594085E-2,-6.4812903E-4],"categories":[],"categories_nodes":[],"categories_segments":[],"categories_sizes":[],"default_left":[0,0,0,0,0,0,0,0,0,0,0,0,0,0,0,0,0,0,0,0,0,0,0,0,0,0,0,0,0,0,0,0,0,0,0,0,0,0,0,0,0,0,0,0,0,0,0,0,0,0,0,0,0],"id":10,"left_children":[1,3,-1,5,7,9,11,13,15,17,19,21,23,25,27,-1,29,31,33,-1,-1,35,37,39,41,43,45,47,49,51,-1,-1,-1,-1,-1,-1,-1,-1,-1,-1,-1,-1,-1,-1,-1,-1,-1,-1,-1,-1,-1,-1,-1],"loss_changes":[1.8384964E1,4.7767115E0,0E0,1.2340381E0,1.699678E0,1.7134738E-1,7.0692104E-1,1.2013502E0,1.5388402E-1,1.2321842E-1,2.8612852E-2,6.362906E-1,3.556549E-1,5.447818E-1,4.297409E-1,0E0,2.6989996E-2,3.8825274E-2,4.0656433E-2,0E0,0E0,3.1855273E-1,3.2603312E-1,3.392319E-1,1.2861386E-1,4.8008204E-1,8.5648906E-1,1.5360737E-1,1.7814428E-2,1.895556E-2,0E0,0E0,0E0,0E0,0E0,0E0,0E0,0E0,0E0,0E0,0E0,0E0,0E0,0E0,0E0,0E0,0E0,0E0,0E0,0E0,0E0,0E0,0E0],"parents":[2147483647,0,0,1,1,3,3,4,4,5,5,6,6,7,7,8,8,9,9,10,10,11,11,12,12,13,13,14,14,16,16,17,17,18,18,21,21,22,22,23,23,24,24,25,25,26,26,27,27,28,28,29,29],"right_children":[2,4,-1,6,8,10,12,14,16,18,20,22,24,26,28,-1,30,32,34,-1,-1,36,38,40,42,44,46,48,50,52,-1,-1,-1,-1,-1,-1,-1,-1,-1,-1,-1,-1,-1,-1,-1,-1,-1,-1,-1,-1,-1,-1,-1],"split_conditions":[3.623E1,1.346E1,9.1563123E-1,4.6E0,1.2E1,6.0076E4,3.5E4,1E0,6E4,1.17E0,1.17E0,8.89E0,1.16E1,1E0,8E4,3.427967E-2,1.6E1,2.0114E4,1.2E0,-4.7313266E-2,-1.1512771E-1,8.4E0,9.85E0,3.6198E4,4.5078E4,9E3,3.8488E4,2.9223E4,9E4,1.609E1,-5.6811247E-2,-3.2037284E-2,-4.905684E-2,2.468175E-2,-2.126445E-2,2.215664E-2,-5.2545764E-2,1.3314766E-1,3.7457183E-2,-5.636406E-2,7.899341E-4,-3.326011E-3,-1.31003E-1,1.7952906E-1,2.1937435E-2,2.3647343E-1,3.0909806E-2,1.2454305E-1,2.549104E-1,1.0383368E-2,7.001343E-2,-3.4594085E-2,-6.4812903E-4],"split_indices":[0,0,0,0,6,1,1,4,1,0,0,0,0,2,1,0,6,1,0,0,0,0,0,1,1,1,1,1,1,0,0,0,0,0,0,0,0,0,0,0,0,0,0,0,0,0,0,0,0,0,0,0,0],"split_type":[0,0,0,0,0,0,0,0,0,0,0,0,0,0,0,0,0,0,0,0,0,0,0,0,0,0,0,0,0,0,0,0,0,0,0,0,0,0,0,0,0,0,0,0,0,0,0,0,0,0,0,0,0],"sum_hessian":[3E2,2.99E2,1E0,2.49E2,5E1,1.19E2,1.3E2,3.9E1,1.1E1,1.13E2,6E0,5.5E1,7.5E1,2.5E1,1.4E1,3E0,8E0,6.9E1,4.4E1,4E0,2E0,4.1E1,1.4E1,7.2E1,3E0,1.8E1,7E0,1.1E1,3E0,5E0,3E0,3.6E1,3.3E1,1E0,4.3E1,3.6E1,5E0,6E0,8E0,1E1,6.2E1,1E0,2E0,1E0,1.7E1,3E0,4E0,5E0,6E0,1E0,2E0,2E0,3E0],"tree_param":{"num_deleted":"0","num_feature":"7","num_nodes":"53","size_leaf_vector":"1"}},{"base_weights":[2.6164936E-2,8.956892E-3,7.782867E-1,-2.2409333E-2,3.028416E-1,-6.846906E-2,6.1393984E-2,5.113578E-1,1.01462334E-1,-5.8525663E-2,-2.2767696E-1,1.9122145E-1,5.9390482E-3,2.2140273E-1,3.4689635E-1,1.7388237E-1,-9.263821E-2,-8.928255E-2,-1.7697854E-2,-3.595808E-2,-8.387341E-2,6.2088665E-2,2.5591826E-1,1.3255875E-1,-2.3043323E-2,-2.1667147E-1,6.193785E-1,1.7315019E-2,2.0619127E-1,-5.456615E-3,-3.201102E-2,-3.6772612E-2,-2.1839008E-2,5.9592347E-3,-1.4249701E-2,5.385034E-2,-3.4411956E-2,-1.524067E-3,8.607684E-2,2.3549737E-2,7.0370436E-2,-4.2089935E-2,1.17831025E-2,1.3034649E-1,-1.7356625E-1,2.4595872E-1,7.9215005E-2,7.47593E-2,2.7040172E-2],"categories":[],"categories_nodes":[],"categories_segments":[],"categories_sizes":[],"default_left":[0,0,0,0,0,0,0,0,0,0,0,0,0,0,0,0,0,0,0,0,0,0,0,0,0,0,0,0,0,0,0,0,0,0,0,0,0,0,0,0,0,0,0,0,0,0,0,0,0],"id":11,"left_children":[1,3,-1,5,7,9,11,13,15,17,19,21,23,-1,25,27,29,31,33,-1,-1,35,37,39,41,43,45,-1,47,-1,-1,-1,-1,-1,-1,-1,-1,-1,-1,-1,-1,-1,-1,-1,-1,-1,-1,-1,-1],"loss_changes":[1.327867E1,2.7722025E0,0E0,1.0541122E0,1.1658506E0,2.6529497E-1,6.972229E-1,2.658429E-1,2.4101639E-1,2.0812786E-1,2.2447705E-2,2.2639036E-1,2.562666E-1,0E0,1.6698234E0,3.313756E-2,3.2949373E-3,4.3218732E-2,8.2658984E-2,0E0,0E0,2.4892746E-1,1.5520823E-1,5.3276256E-2,4.2203587E-1,1.1939487E0,2.8217864E-1,0E0,2.2459686E-2,0E0,0E0,0E0,0E0,0E0,0E0,0E0,0E0,0E0,0E0,0E0,0E0,0E0,0E0,0E0,0E0,0E0,0E0,0E0,0E0],"parents":[2147483647,0,0,1,1,3,3,4,4,5,5,6,6,7,7,8,8,9,9,10,10,11,11,12,12,14,14,15,15,16,16,17,17,18,18,21,21,22,22,23,23,24,24,25,25,26,26,28,28],"right_children":[2,4,-1,6,8,10,12,14,16,18,20,22,24,-1,26,28,30,32,34,-1,-1,36,38,40,42,44,46,-1,48,-1,-1,-1,-1,-1,-1,-1,-1,-1,-1,-1,-1,-1,-1,-1,-1,-1,-1,-1,-1],"split_conditions":[3.623E1,1.489E1,7.782867E-1,7.27E0,1E1,6.0076E4,8E0,7E0,1.4E1,2.28E0,1.17E0,8.89E0,3.3E4,2.2140273E-1,2.9223E4,5.0024E4,6.3E4,7.2E-1,9E0,-3.595808E-2,-8.387341E-2,8.12E0,7E3,2.6E4,4.4E4,1.504E1,9E0,1.7315019E-2,1.2E1,-5.456615E-3,-3.201102E-2,-3.6772612E-2,-2.1839008E-2,5.9592347E-3,-1.4249701E-2,5.385034E-2,-3.4411956E-2,-1.524067E-3,8.607684E-2,2.3549737E-2,7.0370436E-2,-4.2089935E-2,1.17831025E-2,1.3034649E-1,-1.7356625E-1,2.4595872E-1,7.9215005E-2,7.47593E-2,2.7040172E-2],"split_indices":[0,0,0,0,6,1,6,6,6,0,0,0,1,0,1,1,1,0,6,0,0,0,1,1,1,0,6,0,6,0,0,0,0,0,0,0,0,0,0,0,0,0,0,0,0,0,0,0,0],"split_type":[0,0,0,0,0,0,0,0,0,0,0,0,0,0,0,0,0,0,0,0,0,0,0,0,0,0,0,0,0,0,0,0,0,0,0,0,0,0,0,0,0,0,0,0,0,0,0,0,0],"sum_hessian":[3E2,2.99E2,1E0,2.71E2,2.8E1,1.75E2,9.6E1,1.3E1,1.5E1,1.66E2,9E0,2.8E1,6.8E1,4E0,9E0,1.1E1,4E0,9.4E1,7.2E1,4E0,5E0,1E1,1.8E1,1.2E1,5.6E1,3E0,6E0,3E0,8E0,1E0,3E0,2.9E1,6.5E1,3.2E1,4E1,6E0,4E0,2E0,1.6E1,9E0,3E0,1.9E1,3.7E1,1E0,2E0,3E0,3E0,5E0,3E0],"tree_param":{"num_deleted":"0","num_feature":"7","num_nodes":"49","size_leaf_vector":"1"}},{"base_weights":[2.2781147E-2,8.1561105E-3,6.615438E-1,-1.5756825E-2,2.3216172E-1,3.0348284E-2,-6.2085085E-2,3.939047E-1,7.61265E-2,-1.28810415E-2,1.3188234E-1,-4.5980252E-2,-1.5883693E-1,1.6826603E-1,2.7102318E-1,1.3164377E-1,-7.234025E-2,-4.6506017E-3,-8.07654E-2,1.0260366E-1,1.4056335E-1,-8.180648E-2,2.6896328E-3,-2.5280872E-1,-8.295266E-2,-1.6247487E-1,4.8001876E-1,4.4730544E-2,1.5564479E-1,-3.4985423E-2,-3.3263937E-2,-4.58804E-3,5.6993894E-2,3.942095E-2,-8.603744E-2,-2.1021197E-2,-9.381776E-2,2.5378466E-2,-1.4575561E-2,-8.376702E-2,-1.0185922E-2,-3.0518033E-2,1.8534387E-2,1.1079455E-1,-1.3885298E-1,1.906181E-1,6.139176E-2,3.9321184E-3,1.5270806E-2,7.267199E-2,2.8889284E-2,-1.5179063E-2,1.777339E-3],"categories":[],"categories_nodes":[],"categories_segments":[],"categories_sizes":[],"default_left":[0,0,0,0,0,0,0,0,0,0,0,0,0,0,0,0,0,0,0,0,0,0,0,0,0,0,0,0,0,0,0,0,0,0,0,0,0,0,0,0,0,0,0,0,0,0,0,0,0,0,0,0,0],"id":12,"left_children":[1,3,-1,5,7,9,11,13,15,17,19,21,23,-1,25,27,29,31,-1,33,-1,35,37,39,41,43,45,47,49,51,-1,-1,-1,-1,-1,-1,-1,-1,-1,-1,-1,-1,-1,-1,-1,-1,-1,-1,-1,-1,-1,-1,-1],"loss_changes":[9.58908E0,1.6106476E0,0E0,5.828679E-1,7.019038E-1,6.030259E-1,2.0460802E-1,1.3525271E-1,1.4140263E-1,2.0339525E-1,3.5606372E-1,2.0597176E-1,1.1451745E-1,0E0,9.8398286E-1,1.8069997E-2,3.3190101E-3,1.9969067E-1,0E0,4.7504646E-1,0E0,1.6236913E-1,2.1829362E-1,3.6767483E-2,3.8891837E-2,8.098667E-1,1.6948295E-1,1.135543E-4,2.2925496E-2,2.8544096E-3,0E0,0E0,0E0,0E0,0E0,0E0,0E0,0E0,0E0,0E0,0E0,0E0,0E0,0E0,0E0,0E0,0E0,0E0,0E0,0E0,0E0,0E0,0E0],"parents":[2147483647,0,0,1,1,3,3,4,4,5,5,6,6,7,7,8,8,9,9,10,10,11,11,12,12,14,14,15,15,16,16,17,17,19,19,21,21,22,22,23,23,24,24,25,25,26,26,27,27,28,28,29,29],"right_children":[2,4,-1,6,8,10,12,14,16,18,20,22,24,-1,26,28,30,32,-1,34,-1,36,38,40,42,44,46,48,50,52,-1,-1,-1,-1,-1,-1,-1,-1,-1,-1,-1,-1,-1,-1,-1,-1,-1,-1,-1,-1,-1,-1,-1],"split_conditions":[3.623E1,1.489E1,6.615438E-1,9E0,1E1,8.5E0,1.5E1,7E0,1.4E1,8.4E0,6.0241E4,4.3535E4,1E0,1.6826603E-1,2.9223E4,5.0024E4,2.283E1,7.87E0,-8.07654E-2,4.9998E4,1.4056335E-1,4.3E4,5.0024E4,2E1,2.37E0,1.504E1,9E0,1.861E1,1.864E1,1.864E1,-3.3263937E-2,-4.58804E-3,5.6993894E-2,3.942095E-2,-8.603744E-2,-2.1021197E-2,-9.381776E-2,2.5378466E-2,-1.4575561E-2,-8.376702E-2,-1.0185922E-2,-3.0518033E-2,1.8534387E-2,1.1079455E-1,-1.3885298E-1,1.906181E-1,6.139176E-2,3.9321184E-3,1.5270806E-2,7.267199E-2,2.8889284E-2,-1.5179063E-2,1.777339E-3],"split_indices":[0,0,0,6,6,0,6,6,6,0,1,1,3,0,1,1,0,0,0,1,0,1,1,6,0,0,6,0,0,0,0,0,0,0,0,0,0,0,0,0,0,0,0,0,0,0,0,0,0,0,0,0,0],"split_type":[0,0,0,0,0,0,0,0,0,0,0,0,0,0,0,0,0,0,0,0,0,0,0,0,0,0,0,0,0,0,0,0,0,0,0,0,0,0,0,0,0,0,0,0,0,0,0,0,0,0,0,0,0],"sum_hessian":[3E2,2.99E2,1E0,2.71E2,2.8E1,1.36E2,1.35E2,1.3E1,1.5E1,9.6E1,4E1,1.17E2,1.8E1,4E0,9E0,1.1E1,4E0,9.4E1,2E0,3.8E1,2E0,6.7E1,5E1,7E0,1.1E1,3E0,6E0,3E0,8E0,3E0,1E0,9E1,4E0,3.6E1,2E0,6.5E1,2E0,1.9E1,3.1E1,6E0,1E0,1E1,1E0,1E0,2E0,3E0,3E0,1E0,2E0,2E0,6E0,2E0,1E0],"tree_param":{"num_deleted":"0","num_feature":"7","num_nodes":"53","size_leaf_vector":"1"}},{"base_weights":[1.9214142E-2,6.78236E-3,5.6231236E-1,-1.1560613E-2,1.7859292E-1,-4.4699974E-2,2.8947232E-2,3.037486E-1,5.7919636E-2,-3.6382668E-2,-1.2955295E-1,1.193554E-1,1.9561617E-2,1.2788212E-1,2.1211119E-1,1.0221422E-1,-5.9971284E-2,-5.073519E-2,5.6179736E-2,-1.670107E-1,5.0976437E-2,-1.08318575E-1,2.8992783E-2,-1.2074709E-1,3.720143E-1,1.2644279E-1,4.3005656E-2,-2.7840197E-2,-2.8274346E-2,-8.209315E-3,-2.3357311E-2,2.5145607E-2,-3.575027E-2,-2.2819603E-2,-7.827962E-2,4.7130708E-2,-2.4191309E-2,5.0147664E-2,2.237306E-3,9.4175294E-2,-1.1108237E-1,1.4772892E-1,4.75786E-2,1.662469E-3,4.2876825E-2,1.6194821E-3,1.9883348E-2,-1.5853608E-2,-5.670071E-4],"categories":[],"categories_nodes":[],"categories_segments":[],"categories_sizes":[],"default_left":[0,0,0,0,0,0,0,0,0,0,0,0,0,0,0,0,0,0,0,0,0,0,0,0,0,0,0,0,0,0,0,0,0,0,0,0,0,0,0,0,0,0,0,0,0,0,0,0,0],"id":13,"left_children":[1,3,-1,5,7,9,11,13,15,17,19,-1,21,-1,23,25,27,29,31,33,35,-1,37,39,41,43,45,47,-1,-1,-1,-1,-1,-1,-1,-1,-1,-1,-1,-1,-1,-1,-1,-1,-1,-1,-1,-1,-1],"loss_changes":[6.929235E0,9.475196E-1,0E0,3.6642787E-1,4.203924E-1,1.01148784E-1,4.1809157E-1,6.677306E-2,8.968079E-2,1.8618387E-1,9.642252E-2,0E0,4.4482478E-1,0E0,5.7717043E-1,1.17767155E-2,2.8828327E-3,7.3934495E-2,1.0207038E-1,7.4110925E-2,5.457138E-2,0E0,3.528284E-1,5.5007887E-1,1.01795495E-1,1.5147552E-2,4.0182406E-3,2.4956744E-3,0E0,0E0,0E0,0E0,0E0,0E0,0E0,0E0,0E0,0E0,0E0,0E0,0E0,0E0,0E0,0E0,0E0,0E0,0E0,0E0,0E0],"parents":[2147483647,0,0,1,1,3,3,4,4,5,5,6,6,7,7,8,8,9,9,10,10,12,12,14,14,15,15,16,16,17,17,18,18,19,19,20,20,22,22,23,23,24,24,25,25,26,26,27,27],"right_children":[2,4,-1,6,8,10,12,14,16,18,20,-1,22,-1,24,26,28,30,32,34,36,-1,38,40,42,44,46,48,-1,-1,-1,-1,-1,-1,-1,-1,-1,-1,-1,-1,-1,-1,-1,-1,-1,-1,-1,-1,-1],"split_conditions":[3.623E1,1.489E1,5.6231236E-1,6.1E0,1E1,5.71E0,3.493E3,7E0,1.4E1,4.6E0,5.2132E4,1.193554E-1,7E3,1.2788212E-1,2.9223E4,1.2E1,2.283E1,2.2517E4,5.42E4,9E0,5.9E0,-1.08318575E-1,1.66E4,1.504E1,9E0,4.0023E4,1E0,1.609E1,-2.8274346E-2,-8.209315E-3,-2.3357311E-2,2.5145607E-2,-3.575027E-2,-2.2819603E-2,-7.827962E-2,4.7130708E-2,-2.4191309E-2,5.0147664E-2,2.237306E-3,9.4175294E-2,-1.1108237E-1,1.4772892E-1,4.75786E-2,1.662469E-3,4.2876825E-2,1.6194821E-3,1.9883348E-2,-1.5853608E-2,-5.670071E-4],"split_indices":[0,0,0,0,6,0,1,6,6,0,1,0,1,0,1,6,0,1,1,6,0,0,1,0,6,1,2,0,0,0,0,0,0,0,0,0,0,0,0,0,0,0,0,0,0,0,0,0,0],"split_type":[0,0,0,0,0,0,0,0,0,0,0,0,0,0,0,0,0,0,0,0,0,0,0,0,0,0,0,0,0,0,0,0,0,0,0,0,0,0,0,0,0,0,0,0,0,0,0,0,0],"sum_hessian":[3E2,2.99E2,1E0,2.71E2,2.8E1,1.49E2,1.22E2,1.3E1,1.5E1,1.37E2,1.2E1,2E0,1.2E2,4E0,9E0,1.1E1,4E0,1.19E2,1.8E1,1E1,2E0,2E0,1.18E2,3E0,6E0,7E0,4E0,3E0,1E0,6.5E1,5.4E1,1.6E1,2E0,6E0,4E0,1E0,1E0,1.5E1,1.03E2,1E0,2E0,3E0,3E0,1E0,6E0,2E0,2E0,1E0,2E0],"tree_param":{"num_deleted":"0","num_feature":"7","num_nodes":"49","size_leaf_vector":"1"}},{"base_weights":[1.6217452E-2,5.6500584E-3,4.7796538E-1,-1.4349218E-2,1.0357495E-1,3.4680418E-3,-6.208759E-2,3.0572128E-1,4.681434E-2,-1.1865515E-2,7.619406E-2,1.1389026E-1,-6.9145866E-2,1.10956386E-1,1.20349385E-1,-3.668171E-1,1.0144523E-1,-2.1229668E-2,6.374567E-2,1.3092703E-1,-5.7311155E-2,-3.4828263E-3,5.4733444E-2,-5.6785323E-2,-1.4111981E-1,8.436032E-2,-2.8882124E-2,-3.295031E-2,-1.5045825E-1,3.4541088E-1,4.3083783E-2,-1.16204E-3,-2.136121E-2,-1.5657378E-2,3.9518595E-2,7.3071425E-3,9.831028E-2,3.8470425E-2,-4.654502E-2,-1.9267317E-2,1.7909423E-2,-6.621062E-2,-9.994086E-3,2.862406E-2,1.2789814E-1,-5.405538E-2,2.7885057E-2],"categories":[],"categories_nodes":[],"categories_segments":[],"categories_sizes":[],"default_left":[0,0,0,0,0,0,0,0,0,0,0,0,0,0,0,0,0,0,0,0,0,0,0,0,0,0,0,0,0,0,0,0,0,0,0,0,0,0,0,0,0,0,0,0,0,0,0],"id":14,"left_children":[1,3,-1,5,7,9,11,13,15,17,19,21,23,25,-1,27,29,31,33,35,37,-1,-1,39,41,-1,-1,-1,-1,43,45,-1,-1,-1,-1,-1,-1,-1,-1,-1,-1,-1,-1,-1,-1,-1,-1],"loss_changes":[5.0070987E0,5.890143E-1,0E0,2.1285707E-1,5.7085913E-1,2.0497629E-1,9.233785E-2,1.599673E-1,9.6369106E-1,1.08974546E-1,2.413319E-1,2.79288E-2,5.0702482E-2,2.0347138E-1,0E0,1.1800623E-1,5.1193136E-1,1.1768584E-1,1.4086464E-1,4.7433206E-1,2.0143172E-1,0E0,0E0,5.4092616E-2,6.986275E-2,0E0,0E0,0E0,0E0,1.0092449E-1,3.6188954E-1,0E0,0E0,0E0,0E0,0E0,0E0,0E0,0E0,0E0,0E0,0E0,0E0,0E0,0E0,0E0,0E0],"parents":[2147483647,0,0,1,1,3,3,4,4,5,5,6,6,7,7,8,8,9,9,10,10,11,11,12,12,13,13,15,15,16,16,17,17,18,18,19,19,20,20,23,23,24,24,29,29,30,30],"right_children":[2,4,-1,6,8,10,12,14,16,18,20,22,24,26,-1,28,30,32,34,36,38,-1,-1,40,42,-1,-1,-1,-1,44,46,-1,-1,-1,-1,-1,-1,-1,-1,-1,-1,-1,-1,-1,-1,-1,-1],"split_conditions":[3.623E1,1.346E1,4.7796538E-1,1.1E1,2.35E4,1E0,5.4E3,1.2479E4,3E4,1E0,9.94E0,6.4E-1,1.7E1,7E0,1.20349385E-1,2.587E4,4.0001E4,3.3019E4,5.8E-1,9.29E0,4.2E4,-3.4828263E-3,5.4733444E-2,1E0,1E0,8.436032E-2,-2.8882124E-2,-3.295031E-2,-1.5045825E-1,3.4797E4,4.4E4,-1.16204E-3,-2.136121E-2,-1.5657378E-2,3.9518595E-2,7.3071425E-3,9.831028E-2,3.8470425E-2,-4.654502E-2,-1.9267317E-2,1.7909423E-2,-6.621062E-2,-9.994086E-3,2.862406E-2,1.2789814E-1,-5.405538E-2,2.7885057E-2],"split_indices":[0,0,0,6,1,2,1,1,1,4,0,0,6,6,0,1,1,1,0,0,1,0,0,4,3,0,0,0,0,1,1,0,0,0,0,0,0,0,0,0,0,0,0,0,0,0,0],"split_type":[0,0,0,0,0,0,0,0,0,0,0,0,0,0,0,0,0,0,0,0,0,0,0,0,0,0,0,0,0,0,0,0,0,0,0,0,0,0,0,0,0,0,0,0,0,0,0],"sum_hessian":[3E2,2.99E2,1E0,2.49E2,5E1,1.82E2,6.7E1,1E1,4E1,1.51E2,3.1E1,2E0,6.5E1,4E0,6E0,4E0,3.6E1,1.35E2,1.6E1,2.2E1,9E0,1E0,1E0,5.7E1,8E0,2E0,2E0,2E0,2E0,6E0,3E1,1.01E2,3.4E1,6E0,1E1,1.5E1,7E0,3E0,6E0,5.4E1,3E0,4E0,4E0,2E0,4E0,5E0,2.5E1],"tree_param":{"num_deleted":"0","num_feature":"7","num_nodes":"47","size_leaf_vector":"1"}},{"base_weights":[1.3589108E-2,4.6061743E-3,4.062704E-1,-1.21206585E-2,7.0341155E-2,-2.0981203E-3,-7.962429E-2,1.0064551E-1,-3.8583875E-2,-8.439631E-3,1.2557606E-1,-6.0288694E-2,-1.5014115E-1,1.1610327E-1,-1.6992188E-1,-7.526948E-2,4.250412E-2,-1.711811E-2,6.676246E-2,6.748829E-2,7.260972E-2,-1.0887777E-1,-3.3243985E-3,-1.4916991E-2,-5.637577E-2,6.707958E-2,2.23366E-1,-7.4438095E-2,-2.0267488E-3,-9.1074415E-2,1.00462325E-2,-3.0691624E-3,3.3719588E-2,-2.6454472E-3,-1.8646944E-2,-1.1579088E-2,4.0370412E-2,2.875747E-2,-1.3519478E-2,-7.096997E-3,-4.6078295E-2,1.943583E-2,-1.2238257E-2,3.5425354E-2,-1.3699566E-2,1.3235386E-1,3.715653E-2,-4.588355E-2,-1.0394454E-2,1.841755E-2,-1.3506032E-2],"categories":[],"categories_nodes":[],"categories_segments":[],"categories_sizes":[],"default_left":[0,0,0,0,0,0,0,0,0,0,0,0,0,0,0,0,0,0,0,0,0,0,0,0,0,0,0,0,0,0,0,0,0,0,0,0,0,0,0,0,0,0,0,0,0,0,0,0,0,0,0],"id":15,"left_children":[1,3,-1,5,7,9,11,13,15,17,19,21,23,25,27,29,31,33,35,-1,37,39,41,-1,-1,43,45,-1,-1,47,-1,49,-1,-1,-1,-1,-1,-1,-1,-1,-1,-1,-1,-1,-1,-1,-1,-1,-1,-1,-1],"loss_changes":[3.6186845E0,3.30714E-1,0E0,1.6220678E-1,2.0523837E-1,1.7108575E-1,3.3216238E-2,2.2048199E-1,4.484594E-2,1.3232341E-1,3.6306217E-2,7.1601965E-2,1.3417602E-2,2.2690374E-1,3.6604956E-2,2.0238802E-2,1.627158E-2,6.7112654E-2,1.5521699E-1,0E0,2.620593E-2,4.971759E-2,3.5820015E-2,0E0,0E0,1.9516015E-1,2.4880522E-1,0E0,0E0,2.612093E-2,0E0,1.3580663E-2,0E0,0E0,0E0,0E0,0E0,0E0,0E0,0E0,0E0,0E0,0E0,0E0,0E0,0E0,0E0,0E0,0E0,0E0,0E0],"parents":[2147483647,0,0,1,1,3,3,4,4,5,5,6,6,7,7,8,8,9,9,10,10,11,11,12,12,13,13,14,14,15,15,16,16,17,17,18,18,20,20,21,21,22,22,25,25,26,26,29,29,31,31],"right_children":[2,4,-1,6,8,10,12,14,16,18,20,22,24,26,28,30,32,34,36,-1,38,40,42,-1,-1,44,46,-1,-1,48,-1,50,-1,-1,-1,-1,-1,-1,-1,-1,-1,-1,-1,-1,-1,-1,-1,-1,-1,-1,-1],"split_conditions":[3.623E1,1E0,4.062704E-1,5.8E4,1.1E1,1.37E1,1.04707E5,8E4,1.36E1,1E0,1.15E4,9.54E0,1.17E0,4.65E4,9.29E0,1E0,9E4,8.12E0,6.4E-1,6.748829E-2,1.864E1,8.7E-1,1.16E1,-1.4916991E-2,-5.637577E-2,4.3E4,4.9562E4,-7.4438095E-2,-2.0267488E-3,7.85E0,1.00462325E-2,5.0456E4,3.3719588E-2,-2.6454472E-3,-1.8646944E-2,-1.1579088E-2,4.0370412E-2,2.875747E-2,-1.3519478E-2,-7.096997E-3,-4.6078295E-2,1.943583E-2,-1.2238257E-2,3.5425354E-2,-1.3699566E-2,1.3235386E-1,3.715653E-2,-4.588355E-2,-1.0394454E-2,1.841755E-2,-1.3506032E-2],"split_indices":[0,2,0,1,6,0,1,1,0,4,1,0,0,1,0,5,1,0,0,0,0,0,0,0,0,1,1,0,0,0,0,1,0,0,0,0,0,0,0,0,0,0,0,0,0,0,0,0,0,0,0],"split_type":[0,0,0,0,0,0,0,0,0,0,0,0,0,0,0,0,0,0,0,0,0,0,0,0,0,0,0,0,0,0,0,0,0,0,0,0,0,0,0,0,0,0,0,0,0,0,0,0,0,0,0],"sum_hessian":[3E2,2.99E2,1E0,2.39E2,6E1,2.09E2,3E1,4.7E1,1.3E1,2E2,9E0,2.5E1,5E0,4.5E1,2E0,9E0,4E0,1.8E2,2E1,2E0,7E0,1.3E1,1.2E1,2E0,3E0,3.2E1,1.3E1,1E0,1E0,8E0,1E0,3E0,1E0,1.53E2,2.7E1,8E0,1.2E1,6E0,1E0,5E0,8E0,4E0,8E0,2.2E1,1E1,3E0,1E1,3E0,5E0,1E0,2E0],"tree_param":{"num_deleted":"0","num_feature":"7","num_nodes":"51","size_leaf_vector":"1"}},{"base_weights":[1.1128327E-2,3.4914266E-3,3.4532976E-1,-8.722151E-3,6.329344E-2,-5.6456905E-3,-1.5833955E-1,2.1175775E-1,2.1917814E-2,-2.8194824E-2,9.732262E-3,-5.8045387E-3,-7.7428415E-2,7.789596E-2,9.309798E-2,-2.893505E-1,6.338873E-2,-4.6480834E-2,-1.969395E-2,5.753482E-2,-3.5385499E-3,-4.287744E-3,1.6757012E-3,5.3990748E-2,-1.8132925E-2,-7.543596E-2,-1.22044474E-1,2.0065682E-1,-2.4038004E-3,-6.8075424E-3,-1.7529063E-2,-3.9906963E-3,-1.5830109E-2,2.852025E-3,6.012921E-2,-5.9211224E-2,2.6485184E-3,-1.988907E-2,1.8953849E-2,-5.1868916E-3,-2.875929E-2,3.8708463E-2,8.253937E-2,-5.903394E-2,6.5980083E-3],"categories":[],"categories_nodes":[],"categories_segments":[],"categories_sizes":[],"default_left":[0,0,0,0,0,0,0,0,0,0,0,0,0,0,0,0,0,0,0,0,0,0,0,0,0,0,0,0,0,0,0,0,0,0,0,0,0,0,0,0,0,0,0,0,0],"id":16,"left_children":[1,3,-1,5,7,9,11,13,15,17,19,21,-1,23,-1,25,27,29,31,33,35,-1,-1,-1,37,39,-1,41,43,-1,-1,-1,-1,-1,-1,-1,-1,-1,-1,-1,-1,-1,-1,-1,-1],"loss_changes":[2.61644E0,2.1967101E-1,0E0,1.14179045E-1,3.0864173E-1,8.5577235E-2,7.458265E-2,1.2096739E-1,5.475934E-1,1.4629312E-2,9.3457274E-2,3.698713E-4,0E0,6.2075216E-2,0E0,9.494826E-2,3.3463728E-1,7.4862987E-3,1.4095442E-2,2.1771097E-1,2.7980745E-1,0E0,0E0,0E0,1.9853922E-2,1.9060392E-3,0E0,2.8514326E-2,1.2762564E-1,0E0,0E0,0E0,0E0,0E0,0E0,0E0,0E0,0E0,0E0,0E0,0E0,0E0,0E0,0E0,0E0],"parents":[2147483647,0,0,1,1,3,3,4,4,5,5,6,6,7,7,8,8,9,9,10,10,11,11,13,13,15,15,16,16,17,17,18,18,19,19,20,20,24,24,25,25,27,27,28,28],"right_children":[2,4,-1,6,8,10,12,14,16,18,20,22,-1,24,-1,26,28,30,32,34,36,-1,-1,-1,38,40,-1,42,44,-1,-1,-1,-1,-1,-1,-1,-1,-1,-1,-1,-1,-1,-1,-1,-1],"split_conditions":[3.623E1,1.346E1,3.4532976E-1,1.235E1,2.35E4,2.37E0,4.5078E4,1.3E4,3E4,7.2E-1,1.66E4,1.25E1,-7.7428415E-2,7E0,9.309798E-2,2.587E4,9E0,8E0,1.6E0,1.5001E4,2E4,-4.287744E-3,1.6757012E-3,5.3990748E-2,1.2479E4,2.5E4,-1.22044474E-1,1E0,1.37E1,-6.8075424E-3,-1.7529063E-2,-3.9906963E-3,-1.5830109E-2,2.852025E-3,6.012921E-2,-5.9211224E-2,2.6485184E-3,-1.988907E-2,1.8953849E-2,-5.1868916E-3,-2.875929E-2,3.8708463E-2,8.253937E-2,-5.903394E-2,6.5980083E-3],"split_indices":[0,0,0,0,1,0,1,1,1,0,1,0,0,6,0,1,6,6,0,1,1,0,0,0,1,1,0,4,0,0,0,0,0,0,0,0,0,0,0,0,0,0,0,0,0],"split_type":[0,0,0,0,0,0,0,0,0,0,0,0,0,0,0,0,0,0,0,0,0,0,0,0,0,0,0,0,0,0,0,0,0,0,0,0,0,0,0,0,0,0,0,0,0],"sum_hessian":[3E2,2.99E2,1E0,2.49E2,5E1,2.45E2,4E0,1E1,4E1,9.9E1,1.46E2,2E0,2E0,5E0,5E0,4E0,3.6E1,3E1,6.9E1,3.1E1,1.15E2,1E0,1E0,2E0,3E0,2E0,2E0,1.1E1,2.5E1,1.1E1,1.9E1,5.9E1,1E1,2.4E1,7E0,6E0,1.09E2,2E0,1E0,1E0,1E0,7E0,4E0,2E0,2.3E1],"tree_param":{"num_deleted":"0","num_feature":"7","num_nodes":"45","size_leaf_vector":"1"}},{"base_weights":[8.741765E-3,2.2480078E-3,2.9353037E-1,-3.208324E-4,1.9242239E-1,1.866462E-2,-1.8554749E-2,-1.37932785E-2,8.6164474E-2,1.2825471E-2,2.9272223E-1,-3.8506843E-2,-5.904828E-4,1.8648496E-2,-1.24212176E-1,1.2063411E-1,1.1090899E-2,-1.8242372E-2,-1.1429568E-1,4.1021943E-2,-4.645571E-2,5.5982283E-4,2.3116827E-2,-1.095428E-2,-5.9921604E-2,-1.20613305E-2,2.3775142E-2,1.6557528E-2,-4.838006E-2,-1.4074703E-3,3.1432074E-2,-2.6317114E-2,-7.459605E-3],"categories":[],"categories_nodes":[],"categories_segments":[],"categories_sizes":[],"default_left":[0,0,0,0,0,0,0,0,0,0,0,0,0,0,0,0,0,0,0,0,0,0,0,0,0,0,0,0,0,0,0,0,0],"id":17,"left_children":[1,3,-1,5,7,9,11,-1,-1,13,15,17,19,21,23,-1,-1,25,27,29,31,-1,-1,-1,-1,-1,-1,-1,-1,-1,-1,-1,-1],"loss_changes":[1.8931826E0,1.4662002E-1,0E0,1.0316152E-1,1.0359961E-1,2.298841E-1,5.445782E-2,0E0,0E0,1.1722455E-1,6.906542E-2,1.0849404E-1,1.5649934E-1,1.3610688E-1,3.2447793E-2,0E0,0E0,1.2737256E-1,1.2831596E-1,1.2580693E-1,3.2567367E-2,0E0,0E0,0E0,0E0,0E0,0E0,0E0,0E0,0E0,0E0,0E0,0E0],"parents":[2147483647,0,0,1,1,3,3,4,4,5,5,6,6,9,9,10,10,11,11,12,12,13,13,14,14,17,17,18,18,19,19,20,20],"right_children":[2,4,-1,6,8,10,12,-1,-1,14,16,18,20,22,24,-1,-1,26,28,30,32,-1,-1,-1,-1,-1,-1,-1,-1,-1,-1,-1,-1],"split_conditions":[3.623E1,3.596E1,2.9353037E-1,9E0,4.1442E4,6.0241E4,4.5E4,-1.37932785E-2,8.6164474E-2,4.9998E4,9.54E0,6.95E0,5.9E4,1.021E1,5.97E0,1.2063411E-1,1.1090899E-2,3.3429E4,3.4797E4,7.85E0,7.6E0,5.5982283E-4,2.3116827E-2,-1.095428E-2,-5.9921604E-2,-1.20613305E-2,2.3775142E-2,1.6557528E-2,-4.838006E-2,-1.4074703E-3,3.1432074E-2,-2.6317114E-2,-7.459605E-3],"split_indices":[0,0,0,6,1,1,1,0,0,1,0,0,1,0,0,0,0,1,1,0,0,0,0,0,0,0,0,0,0,0,0,0,0],"split_type":[0,0,0,0,0,0,0,0,0,0,0,0,0,0,0,0,0,0,0,0,0,0,0,0,0,0,0,0,0,0,0,0,0],"sum_hessian":[3E2,2.99E2,1E0,2.96E2,3E0,1.45E2,1.51E2,1E0,2E0,1.43E2,2E0,7.1E1,8E1,1.38E2,5E0,1E0,1E0,5.7E1,1.4E1,4.2E1,3.8E1,1.08E2,3E1,3E0,2E0,4.7E1,1E1,3E0,1.1E1,2.5E1,1.7E1,1.2E1,2.6E1],"tree_param":{"num_deleted":"0","num_feature":"7","num_nodes":"33","size_leaf_vector":"1"}},{"base_weights":[7.5363773E-3,2.0170333E-3,2.4950095E-1,-2.0352127E-5,1.5278864E-1,4.687649E-3,-4.7273982E-2,-1.1724186E-2,6.893158E-2,-4.539538E-3,3.1247709E-2,3.0575427E-3,-6.862713E-2,1.7852249E-3,-2.11446E-1,4.303016E-2,-6.544506E-2,1.7435854E-2,-1.9274311E-2,-1.0067877E-1,-4.1540433E-2,-1.8976296E-3,1.902574E-2,-1.0137177E-2,-8.7547824E-2,7.0087984E-3,3.7401047E-2,-4.0728264E-2,1.1643295E-2,7.6744463E-3,3.2071294E-3,-1.7511629E-3,-6.542283E-3,-2.9470236E-3,-3.367643E-2,1.00648645E-2,-2.4983736E-2],"categories":[],"categories_nodes":[],"categories_segments":[],"categories_sizes":[],"default_left":[0,0,0,0,0,0,0,0,0,0,0,0,0,0,0,0,0,0,0,0,0,0,0,0,0,0,0,0,0,0,0,0,0,0,0,0,0],"id":18,"left_children":[1,3,-1,5,7,9,11,-1,-1,13,15,17,19,21,23,25,27,29,31,33,35,-1,-1,-1,-1,-1,-1,-1,-1,-1,-1,-1,-1,-1,-1,-1,-1],"loss_changes":[1.367474E0,9.215707E-2,0E0,6.629523E-2,6.8062544E-2,6.655709E-2,2.9227711E-2,0E0,0E0,2.6472163E-1,8.256555E-2,3.2259135E-3,1.2313053E-2,9.8879755E-2,7.581875E-2,9.82436E-2,6.391581E-2,5.619717E-5,8.865143E-6,7.3112026E-3,4.0403858E-2,0E0,0E0,0E0,0E0,0E0,0E0,0E0,0E0,0E0,0E0,0E0,0E0,0E0,0E0,0E0,0E0],"parents":[2147483647,0,0,1,1,3,3,4,4,5,5,6,6,9,9,10,10,11,11,12,12,13,13,14,14,15,15,16,16,17,17,18,18,19,19,20,20],"right_children":[2,4,-1,6,8,10,12,-1,-1,14,16,18,20,22,24,26,28,30,32,34,36,-1,-1,-1,-1,-1,-1,-1,-1,-1,-1,-1,-1,-1,-1,-1,-1],"split_conditions":[3.623E1,3.596E1,2.4950095E-1,1.4E1,4.1442E4,4.4E4,7.87E-1,-1.1724186E-2,6.893158E-2,4.3E4,7.8E4,5.5138E4,7.7E0,1E0,8E0,6.1381E4,9E4,5.8E-1,6.0076E4,4.0001E4,1.16E1,-1.8976296E-3,1.902574E-2,-1.0137177E-2,-8.7547824E-2,7.0087984E-3,3.7401047E-2,-4.0728264E-2,1.1643295E-2,7.6744463E-3,3.2071294E-3,-1.7511629E-3,-6.542283E-3,-2.9470236E-3,-3.367643E-2,1.00648645E-2,-2.4983736E-2],"split_indices":[0,0,0,6,1,1,0,0,0,1,1,1,0,2,6,1,1,0,1,1,0,0,0,0,0,0,0,0,0,0,0,0,0,0,0,0,0],"split_type":[0,0,0,0,0,0,0,0,0,0,0,0,0,0,0,0,0,0,0,0,0,0,0,0,0,0,0,0,0,0,0,0,0,0,0,0,0],"sum_hessian":[3E2,2.99E2,1E0,2.96E2,3E0,2.7E2,2.6E1,1E0,2E0,2.01E2,6.9E1,8E0,1.8E1,1.96E2,5E0,6.2E1,7E0,5E0,3E0,7E0,1.1E1,1.74E2,2.2E1,2E0,3E0,5.1E1,1.1E1,4E0,3E0,1E0,4E0,1E0,2E0,1E0,6E0,4E0,7E0],"tree_param":{"num_deleted":"0","num_feature":"7","num_nodes":"37","size_leaf_vector":"1"}},{"base_weights":[5.9150904E-3,1.2220094E-3,2.120759E-1,2.7491245E-3,-4.5263626E-2,1.1329601E-3,1.2125397E-1,3.8807996E-2,-4.087941E-3,-9.965516E-3,1.8381755E-1,2.280702E-3,1.0325777E-1,-1.578552E-3,-5.5817097E-2,6.664553E-2,1.607237E-2,-5.725756E-3,4.7462564E-2,5.628462E-2,1.2447084E-3,-3.4099184E-3,5.6587453E-3,-2.5829678E-2,-3.355634E-3],"categories":[],"categories_nodes":[],"categories_segments":[],"categories_sizes":[],"default_left":[0,0,0,0,0,0,0,0,0,0,0,0,0,0,0,0,0,0,0,0,0,0,0,0,0],"id":19,"left_children":[1,3,-1,5,-1,7,9,11,13,-1,15,17,19,21,23,-1,-1,-1,-1,-1,-1,-1,-1,-1,-1],"loss_changes":[9.8938733E-1,7.0097394E-2,0E0,5.693657E-2,0E0,5.8184445E-2,4.476349E-2,8.451483E-2,3.3662118E-2,0E0,3.076598E-3,8.297891E-2,1.079091E-1,5.003273E-2,1.5255287E-2,0E0,0E0,0E0,0E0,0E0,0E0,0E0,0E0,0E0,0E0],"parents":[2147483647,0,0,1,1,3,3,5,5,6,6,7,7,8,8,10,10,11,11,12,12,13,13,14,14],"right_children":[2,4,-1,6,-1,8,10,12,14,-1,16,18,20,22,24,-1,-1,-1,-1,-1,-1,-1,-1,-1,-1],"split_conditions":[3.623E1,2E0,2.120759E-1,3.596E1,-4.5263626E-2,7E0,4.1442E4,7.15E0,1.7E1,-9.965516E-3,4.8E4,1.9434E4,9.85E0,4.4E4,1E0,6.664553E-2,1.607237E-2,-5.725756E-3,4.7462564E-2,5.628462E-2,1.2447084E-3,-3.4099184E-3,5.6587453E-3,-2.5829678E-2,-3.355634E-3],"split_indices":[0,2,0,0,0,6,1,0,6,0,1,1,0,1,3,0,0,0,0,0,0,0,0,0,0],"split_type":[0,0,0,0,0,0,0,0,0,0,0,0,0,0,0,0,0,0,0,0,0,0,0,0,0],"sum_hessian":[3E2,2.99E2,1E0,2.97E2,2E0,2.94E2,3E0,3.5E1,2.59E2,1E0,2E0,2.3E1,1.2E1,2.48E2,1.1E1,1E0,1E0,2.1E1,2E0,6E0,6E0,1.68E2,8E1,6E0,5E0],"tree_param":{"num_deleted":"0","num_feature":"7","num_nodes":"25","size_leaf_vector":"1"}},{"base_weights":[5.176774E-3,1.1881529E-3,1.8026447E-1,1.4884553E-2,-1.1893398E-2,1.0535917E-2,2.2010708E-1,1.1631823E-1,-1.4345645E-2,1.5597237E-2,-1.09317526E-1,9.608002E-2,2.9681684E-3,3.2454396E-3,4.9097765E-2,-6.827072E-2,-9.235848E-3,7.6947697E-3,5.7240967E-2,-1.1339765E-2,-5.047083E-2,-4.7434352E-2,-4.7746077E-2,9.05521E-2,-1.2836612E-2,8.20163E-3,-1.2408202E-2,-1.6537778E-2,-1.795298E-3,8.603764E-3,3.6672287E-2,-5.656826E-3,8.301584E-3],"categories":[],"categories_nodes":[],"categories_segments":[],"categories_sizes":[],"default_left":[0,0,0,0,0,0,0,0,0,0,0,0,0,0,0,0,0,0,0,0,0,0,0,0,0,0,0,0,0,0,0,0,0],"id":20,"left_children":[1,3,-1,5,7,9,11,13,15,17,19,-1,-1,-1,-1,21,23,25,-1,-1,-1,27,-1,29,31,-1,-1,-1,-1,-1,-1,-1,-1],"loss_changes":[7.144744E-1,5.3928077E-2,0E0,1.2886934E-1,5.0087262E-2,8.966446E-2,5.9995934E-2,1.3212949E-2,4.1252486E-2,1.9237013E-1,1.892335E-2,0E0,0E0,0E0,0E0,1.7068349E-2,5.146618E-2,1.3122278E-1,0E0,0E0,0E0,3.4959018E-3,0E0,6.2976293E-3,3.368405E-2,0E0,0E0,0E0,0E0,0E0,0E0,0E0,0E0],"parents":[2147483647,0,0,1,1,3,3,4,4,5,5,6,6,7,7,8,8,9,9,10,10,15,15,16,16,17,17,21,21,23,23,24,24],"right_children":[2,4,-1,6,8,10,12,14,16,18,20,-1,-1,-1,-1,22,24,26,-1,-1,-1,28,-1,30,32,-1,-1,-1,-1,-1,-1,-1,-1],"split_conditions":[3.623E1,9E0,1.8026447E-1,6.0241E4,5.4E3,4.9998E4,9.54E0,6.4E-1,1.5E4,4.4E4,5.97E0,9.608002E-2,2.9681684E-3,3.2454396E-3,4.9097765E-2,2.69E0,1.6002E4,2.82E4,5.7240967E-2,-1.1339765E-2,-5.047083E-2,1.2E1,-4.7746077E-2,1E1,1.609E1,8.20163E-3,-1.2408202E-2,-1.6537778E-2,-1.795298E-3,8.603764E-3,3.6672287E-2,-5.656826E-3,8.301584E-3],"split_indices":[0,6,0,1,1,1,0,0,1,1,0,0,0,0,0,0,1,1,0,0,0,6,0,6,0,0,0,0,0,0,0,0,0],"split_type":[0,0,0,0,0,0,0,0,0,0,0,0,0,0,0,0,0,0,0,0,0,0,0,0,0,0,0,0,0,0,0,0,0],"sum_hessian":[3E2,2.99E2,1E0,1.46E2,1.53E2,1.44E2,2E0,2E0,1.51E2,1.39E2,5E0,1E0,1E0,1E0,1E0,1.2E1,1.39E2,1.34E2,5E0,3E0,2E0,1.1E1,1E0,4E0,1.35E2,9.6E1,3.8E1,9E0,2E0,2E0,2E0,1.18E2,1.7E1],"tree_param":{"num_deleted":"0","num_feature":"7","num_nodes":"33","size_leaf_vector":"1"}},{"base_weights":[4.63609E-3,1.2465448E-3,1.5322495E-1,2.4094216E-3,-3.4404423E-2,-3.78965E-3,2.7585147E-2,1.1231612E-3,-3.694774E-2,-8.327917E-2,4.170713E-2,-4.545091E-3,4.740613E-2,-5.010307E-2,-8.474133E-3,-1.05271816E-1,7.30151E-3,1.9645242E-1,2.5065627E-2,-2.4604332E-3,2.3624407E-2,-4.1122315E-3,2.4274161E-2,-3.6301333E-2,-7.890746E-3,7.1344264E-3,-1.17952E-2,-1.6969694E-2,-4.0536836E-2,1.9354869E-2,7.8871354E-2,-4.5164622E-2,1.3206396E-2],"categories":[],"categories_nodes":[],"categories_segments":[],"categories_sizes":[],"default_left":[0,0,0,0,0,0,0,0,0,0,0,0,0,0,0,0,0,0,0,0,0,0,0,0,0,0,0,0,0,0,0,0,0],"id":21,"left_children":[1,3,-1,5,-1,7,9,11,13,15,17,19,21,23,25,27,-1,29,31,-1,-1,-1,-1,-1,-1,-1,-1,-1,-1,-1,-1,-1,-1],"loss_changes":[5.1572746E-1,4.0719297E-2,0E0,4.661224E-2,0E0,3.9137363E-2,9.584514E-2,5.5307608E-2,1.11873895E-2,1.9129705E-2,1.315611E-1,5.790106E-2,4.8207995E-2,3.225466E-2,1.1878531E-2,1.0802522E-3,0E0,2.6875556E-2,1.6974308E-1,0E0,0E0,0E0,0E0,0E0,0E0,0E0,0E0,0E0,0E0,0E0,0E0,0E0,0E0],"parents":[2147483647,0,0,1,1,3,3,5,5,6,6,7,7,8,8,9,9,10,10,11,11,12,12,13,13,14,14,15,15,17,17,18,18],"right_children":[2,4,-1,6,-1,8,10,12,14,16,18,20,22,24,26,28,-1,30,32,-1,-1,-1,-1,-1,-1,-1,-1,-1,-1,-1,-1,-1,-1],"split_conditions":[3.623E1,2E0,1.5322495E-1,1E0,-3.4404423E-2,5.8E4,6.8E0,1E0,1E0,1E0,7.7E0,5.5E4,6.4E-1,6.1381E4,9.2233E4,6.05E0,7.30151E-3,4.3E4,8.7E0,-2.4604332E-3,2.3624407E-2,-4.1122315E-3,2.4274161E-2,-3.6301333E-2,-7.890746E-3,7.1344264E-3,-1.17952E-2,-1.6969694E-2,-4.0536836E-2,1.9354869E-2,7.8871354E-2,-4.5164622E-2,1.3206396E-2],"split_indices":[0,2,0,2,0,1,0,4,3,5,0,1,0,1,1,0,0,1,0,0,0,0,0,0,0,0,0,0,0,0,0,0,0],"split_type":[0,0,0,0,0,0,0,0,0,0,0,0,0,0,0,0,0,0,0,0,0,0,0,0,0,0,0,0,0,0,0,0,0],"sum_hessian":[3E2,2.99E2,1E0,2.97E2,2E0,2.39E2,5.8E1,2.09E2,3E1,6E0,5.2E1,1.87E2,2.2E1,2E1,1E1,5E0,1E0,4E0,4.8E1,1.8E2,7E0,8E0,1.4E1,4E0,1.6E1,5E0,5E0,3E0,2E0,2E0,2E0,4E0,4.4E1],"tree_param":{"num_deleted":"0","num_feature":"7","num_nodes":"33","size_leaf_vector":"1"}},{"base_weights":[3.668368E-3,7.8634714E-4,1.3024122E-1,1.7152326E-3,-2.7523518E-2,3.9202636E-3,-3.739346E-2,2.2303616E-3,1.21233344E-1,-5.8422733E-2,-1.3920696E-2,-1.9643037E-3,2.60469E-2,6.0479738E-2,2.7245045E-2,2.6517322E-2,-5.261863E-2,9.7638177E-4,-1.4030506E-2,8.9272216E-2,3.6499153E-3,1.8249751E-3,1.0435295E-2,-7.1993354E-4,1.6810311E-2,-4.4196583E-3,-2.1721216E-2],"categories":[],"categories_nodes":[],"categories_segments":[],"categories_sizes":[],"default_left":[0,0,0,0,0,0,0,0,0,0,0,0,0,0,0,0,0,0,0,0,0,0,0,0,0,0,0],"id":22,"left_children":[1,3,-1,5,-1,7,9,11,13,-1,15,17,19,-1,21,23,25,-1,-1,-1,-1,-1,-1,-1,-1,-1,-1],"loss_changes":[3.7308544E-1,2.5942689E-2,0E0,2.5844885E-2,0E0,5.5833682E-2,5.6383688E-2,2.8023837E-2,2.472119E-2,0E0,2.486832E-2,5.6037165E-2,1.5467496E-1,0E0,2.6703207E-4,6.9628493E-3,4.9301237E-3,0E0,0E0,0E0,0E0,0E0,0E0,0E0,0E0,0E0,0E0],"parents":[2147483647,0,0,1,1,3,3,5,5,6,6,7,7,8,8,10,10,11,11,12,12,14,14,15,15,16,16],"right_children":[2,4,-1,6,-1,8,10,12,14,-1,16,18,20,-1,22,24,26,-1,-1,-1,-1,-1,-1,-1,-1,-1,-1],"split_conditions":[3.623E1,2E0,1.3024122E-1,8.3E4,-2.7523518E-2,7.7632E4,8.7934E4,1.346E1,7.7E0,-5.8422733E-2,1.27E5,9.54E0,1.36E1,6.0479738E-2,2.315E1,9E4,2.37E0,9.7638177E-4,-1.4030506E-2,8.9272216E-2,3.6499153E-3,1.8249751E-3,1.0435295E-2,-7.1993354E-4,1.6810311E-2,-4.4196583E-3,-2.1721216E-2],"split_indices":[0,2,0,1,0,1,1,0,0,0,1,0,0,0,0,1,0,0,0,0,0,0,0,0,0,0,0],"split_type":[0,0,0,0,0,0,0,0,0,0,0,0,0,0,0,0,0,0,0,0,0,0,0,0,0,0,0],"sum_hessian":[3E2,2.99E2,1E0,2.97E2,2E0,2.82E2,1.5E1,2.79E2,3E0,1E0,1.4E1,2.38E2,4.1E1,1E0,2E0,7E0,7E0,2.14E2,2.4E1,1E0,4E1,1E0,1E0,4E0,3E0,3E0,4E0],"tree_param":{"num_deleted":"0","num_feature":"7","num_nodes":"27","size_leaf_vector":"1"}},{"base_weights":[3.188588E-3,7.3910557E-4,1.10704996E-1,9.83473E-3,-7.947881E-3,6.313593E-3,1.7674477E-1,1.0041049E-1,-1.00342445E-2,1.004335E-2,-8.1766345E-2,7.954059E-2,-5.435944E-6,3.229E-3,4.1955724E-2,-6.3201554E-2,-6.641605E-3,4.358852E-3,1.3627069E-1,-2.211997E-2,-4.0211823E-2,-3.746715E-2,-4.0361524E-2,2.892167E-2,-1.1001068E-2,5.750606E-3,-9.776289E-3,1.1022664E-2,4.4648383E-2,-1.0234487E-2,-2.0249963E-3,-1.441715E-2,-1.1394203E-3,-6.9588143E-3,1.4468174E-2,-3.4695435E-2,-1.4867748E-3],"categories":[],"categories_nodes":[],"categories_segments":[],"categories_sizes":[],"default_left":[0,0,0,0,0,0,0,0,0,0,0,0,0,0,0,0,0,0,0,0,0,0,0,0,0,0,0,0,0,0,0,0,0,0,0,0,0],"id":23,"left_children":[1,3,-1,5,7,9,11,13,15,17,19,-1,-1,-1,-1,21,23,25,27,29,-1,31,-1,33,35,-1,-1,-1,-1,-1,-1,-1,-1,-1,-1,-1,-1],"loss_changes":[2.694502E-1,2.3782235E-2,0E0,8.5277945E-2,3.5823084E-2,4.8456147E-2,4.6877287E-2,9.102287E-3,2.6997622E-2,9.9861495E-2,1.5742444E-2,0E0,0E0,0E0,0E0,1.1481535E-2,2.2643467E-2,7.449279E-2,2.0305514E-3,5.0717546E-4,0E0,2.6699249E-3,0E0,1.7217282E-2,8.103579E-2,0E0,0E0,0E0,0E0,0E0,0E0,0E0,0E0,0E0,0E0,0E0,0E0],"parents":[2147483647,0,0,1,1,3,3,4,4,5,5,6,6,7,7,8,8,9,9,10,10,15,15,16,16,17,17,18,18,19,19,21,21,23,23,24,24],"right_children":[2,4,-1,6,8,10,12,14,16,18,20,-1,-1,-1,-1,22,24,26,28,30,-1,32,-1,34,36,-1,-1,-1,-1,-1,-1,-1,-1,-1,-1,-1,-1],"split_conditions":[3.623E1,9E0,1.10704996E-1,6.0241E4,5.4E3,4.9998E4,9.54E0,6.4E-1,1.18E4,4.4E4,5.97E0,7.954059E-2,-5.435944E-6,3.229E-3,4.1955724E-2,2.69E0,2.0114E4,2.82E4,7.21E0,5.1E-1,-4.0211823E-2,1.2E1,-4.0361524E-2,7.4E-1,2.4E4,5.750606E-3,-9.776289E-3,1.1022664E-2,4.4648383E-2,-1.0234487E-2,-2.0249963E-3,-1.441715E-2,-1.1394203E-3,-6.9588143E-3,1.4468174E-2,-3.4695435E-2,-1.4867748E-3],"split_indices":[0,6,0,1,1,1,0,0,1,1,0,0,0,0,0,0,1,1,0,0,0,6,0,0,1,0,0,0,0,0,0,0,0,0,0,0,0],"split_type":[0,0,0,0,0,0,0,0,0,0,0,0,0,0,0,0,0,0,0,0,0,0,0,0,0,0,0,0,0,0,0,0,0,0,0,0,0],"sum_hessian":[3E2,2.99E2,1E0,1.46E2,1.53E2,1.44E2,2E0,2E0,1.51E2,1.39E2,5E0,1E0,1E0,1E0,1E0,8E0,1.43E2,1.34E2,5E0,3E0,2E0,7E0,1E0,1.5E1,1.28E2,9.6E1,3.8E1,1E0,4E0,1E0,2E0,5E0,2E0,4E0,1.1E1,6E0,1.22E2],"tree_param":{"num_deleted":"0","num_feature":"7","num_nodes":"37","size_leaf_vector":"1"}},{"base_weights":[2.7303454E-3,6.4835657E-4,9.409905E-2,3.189583E-2,-6.0641745E-5,-4.787174E-2,1.7593675E-3,-2.0044584E-2,-4.8921492E-2,1.3212773E-1,-7.011783E-5,-4.351269E-2,2.8529342E-3,2.6117444E-2,6.752379E-2,-6.785821E-2,1.3775644E-3,-3.5111504E-3,-1.4561684E-2,-1.0663775E-2,5.2925665E-3,9.367526E-4,1.0816097E-2,-5.4080756E-3,-4.7552206E-2,2.6271882E-2,-4.4072617E-4],"categories":[],"categories_nodes":[],"categories_segments":[],"categories_sizes":[],"default_left":[0,0,0,0,0,0,0,0,0,0,0,0,0,0,0,0,0,0,0,0,0,0,0,0,0,0,0],"id":24,"left_children":[1,3,-1,-1,5,7,9,11,-1,13,15,17,19,21,-1,23,25,-1,-1,-1,-1,-1,-1,-1,-1,-1,-1],"loss_changes":[1.9465178E-1,2.248263E-2,0E0,0E0,2.61022E-2,3.199383E-2,6.893779E-2,5.497753E-3,0E0,3.35368E-2,2.8160267E-2,2.3130607E-4,4.0343697E-3,5.728698E-4,0E0,2.4245584E-2,6.907711E-2,0E0,0E0,0E0,0E0,0E0,0E0,0E0,0E0,0E0,0E0],"parents":[2147483647,0,0,1,1,4,4,5,5,6,6,7,7,9,9,10,10,11,11,12,12,13,13,15,15,16,16],"right_children":[2,4,-1,-1,6,8,10,12,-1,14,16,18,20,22,-1,24,26,-1,-1,-1,-1,-1,-1,-1,-1,-1,-1],"split_conditions":[3.623E1,6E0,9.409905E-2,3.189583E-2,3E3,3.76E0,3.493E3,1.3E3,-4.8921492E-2,2.28E0,4.1E3,5.5E-1,5.2E-1,8.8E-1,6.752379E-2,5.71E0,5.5E3,-3.5111504E-3,-1.4561684E-2,-1.0663775E-2,5.2925665E-3,9.367526E-4,1.0816097E-2,-5.4080756E-3,-4.7552206E-2,2.6271882E-2,-4.4072617E-4],"split_indices":[0,6,0,0,1,0,1,1,0,0,1,0,0,0,0,0,1,0,0,0,0,0,0,0,0,0,0],"split_type":[0,0,0,0,0,0,0,0,0,0,0,0,0,0,0,0,0,0,0,0,0,0,0,0,0,0,0],"sum_hessian":[3E2,2.99E2,1E0,1E0,2.98E2,1E1,2.88E2,9E0,1E0,3E0,2.85E2,4E0,5E0,2E0,1E0,5E0,2.8E2,1E0,3E0,1E0,4E0,1E0,1E0,4E0,1E0,8E0,2.72E2],"tree_param":{"num_deleted":"0","num_feature":"7","num_nodes":"27","size_leaf_vector":"1"}},{"base_weights":[2.2626128E-3,4.927349E-4,7.9983905E-2,-9.637135E-3,7.2059487E-3,-6.750902E-3,-4.9200535E-2,1.1831985E-1,4.0264265E-3,2.9666023E-2,-1.0574546E-2,-1.0906831E-1,8.69352E-2,-1.1386443E-2,1.6687721E-1,3.341305E-2,-8.803445E-3,6.2437613E-2,-7.853743E-2,-1.9327713E-2,-9.414968E-3,-2.7676964E-2,-7.740376E-2,3.1377092E-2,7.743752E-3,7.0203245E-2,1.9948723E-2,4.548206E-3,1.3406098E-1,-8.4370166E-2,2.6211857E-3,4.931462E-3,3.4748197E-2,-7.2799628E-3,-2.806188E-2,-2.1741227E-3,-1.1340324E-2,-1.867161E-2,4.8331264E-3,9.40587E-3,-2.0193E-2,7.378943E-2,2.082909E-2,3.154412E-2,-1.3981439E-3],"categories":[],"categories_nodes":[],"categories_segments":[],"categories_sizes":[],"default_left":[0,0,0,0,0,0,0,0,0,0,0,0,0,0,0,0,0,0,0,0,0,0,0,0,0,0,0,0,0,0,0,0,0,0,0,0,0,0,0,0,0,0,0,0,0],"id":25,"left_children":[1,3,-1,5,7,9,11,13,15,17,19,21,23,-1,25,27,29,31,33,-1,35,37,-1,-1,-1,-1,-1,39,41,-1,43,-1,-1,-1,-1,-1,-1,-1,-1,-1,-1,-1,-1,-1,-1],"loss_changes":[1.4069688E-1,2.047064E-2,0E0,1.3370555E-2,6.3468926E-2,1.6048428E-2,7.468303E-2,4.4275217E-2,6.702785E-2,4.3909684E-2,5.825226E-3,6.559563E-2,5.376451E-4,0E0,1.1395164E-2,1.5627035E-1,3.8667688E-1,2.019906E-2,1.7266162E-4,0E0,6.0029356E-3,8.56953E-3,0E0,0E0,0E0,0E0,0E0,8.4934264E-2,6.971161E-2,0E0,9.007714E-2,0E0,0E0,0E0,0E0,0E0,0E0,0E0,0E0,0E0,0E0,0E0,0E0,0E0,0E0],"parents":[2147483647,0,0,1,1,3,3,4,4,5,5,6,6,7,7,8,8,9,9,10,10,11,11,12,12,14,14,15,15,16,16,17,17,18,18,20,20,21,21,27,27,28,28,30,30],"right_children":[2,4,-1,6,8,10,12,14,16,18,20,22,24,-1,26,28,30,32,34,-1,36,38,-1,-1,-1,-1,-1,40,42,-1,44,-1,-1,-1,-1,-1,-1,-1,-1,-1,-1,-1,-1,-1,-1],"split_conditions":[3.623E1,4.6E0,7.9983905E-2,4.43E0,4.89E0,1E0,2.8569E4,2.2671E4,2.82E4,1.3E1,4.7E-1,9E0,3.86E4,-1.1386443E-2,3.0753E4,2.17E4,3E4,1E1,3.98E0,-1.9327713E-2,1E0,1.29E4,-7.740376E-2,3.1377092E-2,7.743752E-3,7.0203245E-2,1.9948723E-2,1.66E4,2.35E4,-8.4370166E-2,8E0,4.931462E-3,3.4748197E-2,-7.2799628E-3,-2.806188E-2,-2.1741227E-3,-1.1340324E-2,-1.867161E-2,4.8331264E-3,9.40587E-3,-2.0193E-2,7.378943E-2,2.082909E-2,3.154412E-2,-1.3981439E-3],"split_indices":[0,0,0,0,0,3,1,1,1,6,0,6,1,0,1,1,1,6,0,0,5,1,0,0,0,0,0,1,1,0,6,0,0,0,0,0,0,0,0,0,0,0,0,0,0],"split_type":[0,0,0,0,0,0,0,0,0,0,0,0,0,0,0,0,0,0,0,0,0,0,0,0,0,0,0,0,0,0,0,0,0,0,0,0,0,0,0,0,0,0,0,0,0],"sum_hessian":[3E2,2.99E2,1E0,1.19E2,1.8E2,1.12E2,7E0,4E0,1.76E2,1E1,1.02E2,5E0,2E0,1E0,3E0,5.3E1,1.23E2,8E0,2E0,1E0,1.01E2,4E0,1E0,1E0,1E0,1E0,2E0,4.2E1,1.1E1,4E0,1.19E2,5E0,3E0,1E0,1E0,9.5E1,6E0,2E0,2E0,3.1E1,1.1E1,3E0,8E0,7E0,1.12E2],"tree_param":{"num_deleted":"0","num_feature":"7","num_nodes":"45","size_leaf_vector":"1"}},{"base_weights":[1.9417163E-3,4.3737778E-4,6.798649E-2,-1.531987E-2,4.8609567E-3,-3.659257E-3,-6.7487694E-2,7.6739326E-2,-1.0962525E-3,-9.685003E-3,1.0401535E-1,-1.062274E-1,-2.464113E-2,2.4024742E-2,1.5614441E-1,-6.7775294E-2,2.7744954E-3,2.5260788E-3,-1.2741661E-1,3.7105467E-2,9.701443E-3,-6.8810466E-3,-3.5489447E-2,1.3224483E-3,-1.7910017E-2,-2.9613573E-2,5.4545596E-2,5.1774956E-2,8.626771E-3,-4.9207574E-3,-5.767626E-2,4.9458414E-2,-1.6627945E-3,-1.7498336E-3,2.3175174E-2,-7.945104E-2,-8.055711E-3,5.1016062E-3,-4.4403826E-3,-1.3758272E-3,-1.343096E-2,3.0251393E-2,1.980772E-3,-5.2353E-3,1.4298177E-2,5.0561135E-3,6.2059216E-2,-1.8135834E-2,5.817494E-4],"categories":[],"categories_nodes":[],"categories_segments":[],"categories_sizes":[],"default_left":[0,0,0,0,0,0,0,0,0,0,0,0,0,0,0,0,0,0,0,0,0,0,0,0,0,0,0,0,0,0,0,0,0,0,0,0,0,0,0,0,0,0,0,0,0,0,0,0,0],"id":26,"left_children":[1,3,-1,5,7,9,11,13,15,17,19,21,23,25,27,29,31,33,35,-1,-1,-1,-1,37,-1,39,41,-1,-1,43,-1,45,47,-1,-1,-1,-1,-1,-1,-1,-1,-1,-1,-1,-1,-1,-1,-1,-1],"loss_changes":[1.0163727E-1,2.0985497E-2,0E0,3.9901424E-2,1.00709826E-1,3.669248E-2,1.73008E-2,7.1593165E-2,5.645335E-2,7.651627E-2,2.2983178E-4,3.318891E-3,6.450735E-3,2.1260334E-2,9.695992E-3,9.294273E-2,4.296231E-2,3.1056544E-2,6.1986275E-2,0E0,0E0,0E0,0E0,1.5160351E-3,0E0,1.6913004E-3,1.7089384E-2,0E0,0E0,6.761438E-3,0E0,8.8892534E-2,4.035146E-2,0E0,0E0,0E0,0E0,0E0,0E0,0E0,0E0,0E0,0E0,0E0,0E0,0E0,0E0,0E0,0E0],"parents":[2147483647,0,0,1,1,3,3,4,4,5,5,6,6,7,7,8,8,9,9,10,10,11,11,12,12,13,13,14,14,15,15,16,16,17,17,18,18,23,23,25,25,26,26,29,29,31,31,32,32],"right_children":[2,4,-1,6,8,10,12,14,16,18,20,22,24,26,28,30,32,34,36,-1,-1,-1,-1,38,-1,40,42,-1,-1,44,-1,46,48,-1,-1,-1,-1,-1,-1,-1,-1,-1,-1,-1,-1,-1,-1,-1,-1],"split_conditions":[3.623E1,1.4465E4,6.798649E-2,1.2E4,1.65E4,1.37E1,8E0,1.5001E4,1.9E4,9.85E0,1.977E1,5.5E-1,1.4E4,1.05E0,1.62E4,6.82E0,2.3E4,5.98E0,9.9E0,3.7105467E-2,9.701443E-3,-6.8810466E-3,-3.5489447E-2,1E1,-1.7910017E-2,8E-1,5.97E0,5.1774956E-2,8.626771E-3,3.46E0,-5.767626E-2,9.54E0,2.4678E4,-1.7498336E-3,2.3175174E-2,-7.945104E-2,-8.055711E-3,5.1016062E-3,-4.4403826E-3,-1.3758272E-3,-1.343096E-2,3.0251393E-2,1.980772E-3,-5.2353E-3,1.4298177E-2,5.0561135E-3,6.2059216E-2,-1.8135834E-2,5.817494E-4],"split_indices":[0,1,0,1,1,0,6,1,1,0,0,0,1,0,1,0,1,0,0,0,0,0,0,6,0,0,0,0,0,0,0,0,1,0,0,0,0,0,0,0,0,0,0,0,0,0,0,0,0],"split_type":[0,0,0,0,0,0,0,0,0,0,0,0,0,0,0,0,0,0,0,0,0,0,0,0,0,0,0,0,0,0,0,0,0,0,0,0,0,0,0,0,0,0,0,0,0,0,0,0,0],"sum_hessian":[3E2,2.99E2,1E0,6.5E1,2.34E2,5.4E1,1.1E1,1.7E1,2.17E2,5.2E1,2E0,5E0,6E0,1.1E1,6E0,1.1E1,2.06E2,4.8E1,4E0,1E0,1E0,1E0,4E0,4E0,2E0,4E0,7E0,5E0,1E0,8E0,3E0,1.7E1,1.89E2,4.4E1,4E0,1E0,3E0,2E0,2E0,2E0,2E0,3E0,4E0,7E0,1E0,1.5E1,2E0,1E1,1.79E2],"tree_param":{"num_deleted":"0","num_feature":"7","num_nodes":"49","size_leaf_vector":"1"}},{"base_weights":[1.5846947E-3,-5.098416E-4,1.2568322E-1,2.4852375E-3,-1.8259501E-2,6.4542584E-2,-5.669912E-3,-2.9555976E-3,2.541927E-2,-8.766159E-2,1.0845044E-4,-1.1832905E-2,9.281445E-3,1.6524522E-3,-1.1778739E-1,-1.790793E-3,6.1784633E-2,1.3699494E-3,-1.3240568E-1,6.779802E-2,-1.3182089E-2,-3.917348E-3,4.4686016E-2,-1.6006131E-1,6.02293E-3,-2.0845084E-2,5.0832357E-2,1.4428572E-1,-1.2115002E-2,6.6083507E-3,-3.8575875E-3,-4.5253918E-2,-6.0303216E-3,-4.8990544E-2,1.6685772E-3,2.195351E-3,-1.5515068E-2,-2.0011313E-2,2.637722E-2,-9.163189E-3,-6.515521E-2,-6.275225E-3,8.985544E-3,2.0692829E-2,-1.159731E-2,2.8175361E-2,1.8592429E-3,6.0128924E-2,-1.6058065E-2,-6.6556625E-2,8.136294E-3,-2.7055819E-2,-5.535481E-3,4.336846E-2,-5.1126545E-3],"categories":[],"categories_nodes":[],"categories_segments":[],"categories_sizes":[],"default_left":[0,0,0,0,0,0,0,0,0,0,0,0,0,0,0,0,0,0,0,0,0,0,0,0,0,0,0,0,0,0,0,0,0,0,0,0,0,0,0,0,0,0,0,0,0,0,0,0,0,0,0,0,0,0,0],"id":27,"left_children":[1,3,5,7,9,-1,11,13,15,17,19,-1,-1,21,23,25,27,29,31,-1,33,35,37,39,41,43,45,47,49,-1,-1,-1,-1,51,53,-1,-1,-1,-1,-1,-1,-1,-1,-1,-1,-1,-1,-1,-1,-1,-1,-1,-1,-1,-1],"loss_changes":[7.830267E-2,1.5834384E-2,5.997324E-2,3.1894103E-2,5.482479E-2,0E0,4.9293977E-3,1.0972881E-1,4.859633E-2,3.6034115E-2,1.08053714E-1,0E0,0E0,4.8112724E-2,4.2835623E-2,3.0137815E-2,1.2978083E-1,1.4589767E-3,9.39367E-3,0E0,1.8162245E-2,9.597098E-2,1.16639875E-1,3.7756607E-2,2.5604714E-3,3.7865356E-2,1.4802879E-2,1.2178831E-1,1.0476939E-1,0E0,0E0,0E0,0E0,1.0916596E-2,6.930453E-2,0E0,0E0,0E0,0E0,0E0,0E0,0E0,0E0,0E0,0E0,0E0,0E0,0E0,0E0,0E0,0E0,0E0,0E0,0E0,0E0],"parents":[2147483647,0,0,1,1,2,2,3,3,4,4,6,6,7,7,8,8,9,9,10,10,13,13,14,14,15,15,16,16,17,17,18,18,20,20,21,21,22,22,23,23,24,24,25,25,26,26,27,27,28,28,33,33,34,34],"right_children":[2,4,6,8,10,-1,12,14,16,18,20,-1,-1,22,24,26,28,30,32,-1,34,36,38,40,42,44,46,48,50,-1,-1,-1,-1,52,54,-1,-1,-1,-1,-1,-1,-1,-1,-1,-1,-1,-1,-1,-1,-1,-1,-1,-1,-1,-1],"split_conditions":[3.596E1,5.9E4,9E0,4.5E4,6.1381E4,6.4542584E-2,4.1442E4,4.3E4,7.85E0,5.97E0,6.2E4,-1.1832905E-2,9.281445E-3,1E0,4.4E4,5.4242E4,9.94E0,5.2E-1,1.346E1,6.779802E-2,7.27E0,8.4E0,8.7E0,8E0,3.98E0,4.5078E4,5.7E4,5.0024E4,1E1,6.6083507E-3,-3.8575875E-3,-4.5253918E-2,-6.0303216E-3,7.2E4,8.01E0,2.195351E-3,-1.5515068E-2,-2.0011313E-2,2.637722E-2,-9.163189E-3,-6.515521E-2,-6.275225E-3,8.985544E-3,2.0692829E-2,-1.159731E-2,2.8175361E-2,1.8592429E-3,6.0128924E-2,-1.6058065E-2,-6.6556625E-2,8.136294E-3,-2.7055819E-2,-5.535481E-3,4.336846E-2,-5.1126545E-3],"split_indices":[0,1,6,1,1,0,1,1,0,0,1,0,0,2,1,1,0,0,0,0,0,0,0,6,0,1,1,1,0,0,0,0,0,1,0,0,0,0,0,0,0,0,0,0,0,0,0,0,0,0,0,0,0,0,0],"split_type":[0,0,0,0,0,0,0,0,0,0,0,0,0,0,0,0,0,0,0,0,0,0,0,0,0,0,0,0,0,0,0,0,0,0,0,0,0,0,0,0,0,0,0,0,0,0,0,0,0,0,0,0,0,0,0],"sum_hessian":[3E2,2.96E2,4E0,2.54E2,4.2E1,2E0,2E0,2.06E2,4.8E1,8E0,3.4E1,1E0,1E0,1.99E2,7E0,2.8E1,2E1,3E0,5E0,1E0,3.3E1,1.77E2,2.2E1,5E0,2E0,2.1E1,7E0,9E0,1.1E1,1E0,2E0,4E0,1E0,9E0,2.4E1,1.44E2,3.3E1,6E0,1.6E1,2E0,3E0,1E0,1E0,3E0,1.8E1,3E0,4E0,7E0,2E0,1E0,1E1,3E0,6E0,2E0,2.2E1],"tree_param":{"num_deleted":"0","num_feature":"7","num_nodes":"55","size_leaf_vector":"1"}},{"base_weights":[1.2193833E-3,1.5439178E-4,4.810753E-2,-1.23991E-2,3.6793961E-3,-1.800233E-2,5.9560776E-2,5.8200672E-2,-8.3923875E-4,-4.139575E-3,-1.1105847E-1,2.9626848E-2,5.1180524E-4,1.5178636E-2,1.23638354E-1,-4.7018234E-2,3.051267E-3,-1.2655092E-2,4.4304322E-2,1.8267632E-2,-1.4432171E-1,7.3752883E-3,-7.144976E-3,2.942031E-4,2.683611E-2,1.1915351E-2,4.47789E-2,-3.3582724E-3,-1.5113048E-1,6.5760754E-2,-1.2554417E-3,-7.194282E-4,-2.778057E-2,-6.98747E-2,-5.8942083E-3,6.70409E-3,-1.3165463E-2,-4.293908E-3,1.1378575E-2,-5.9592485E-2,-1.5972758E-2,2.0709222E-3,5.8939435E-2,-8.840382E-3,1.265573E-3],"categories":[],"categories_nodes":[],"categories_segments":[],"categories_sizes":[],"default_left":[0,0,0,0,0,0,0,0,0,0,0,0,0,0,0,0,0,0,0,0,0,0,0,0,0,0,0,0,0,0,0,0,0,0,0,0,0,0,0,0,0,0,0,0,0],"id":28,"left_children":[1,3,-1,5,7,9,11,13,15,17,19,-1,21,23,25,27,29,31,-1,-1,33,-1,-1,35,-1,-1,-1,37,39,41,43,-1,-1,-1,-1,-1,-1,-1,-1,-1,-1,-1,-1,-1,-1],"loss_changes":[5.0989248E-2,1.33209545E-2,0E0,2.7683944E-2,5.794385E-2,7.952116E-2,1.152169E-2,4.879807E-2,3.9309267E-2,7.297464E-2,5.4545127E-2,0E0,2.3424488E-3,1.3240187E-2,9.124637E-3,7.6766595E-2,5.4637E-2,4.3238685E-2,0E0,0E0,7.274155E-2,0E0,0E0,1.1697671E-2,0E0,0E0,0E0,6.4226077E-3,1.2677662E-2,9.8651946E-2,2.94671E-2,0E0,0E0,0E0,0E0,0E0,0E0,0E0,0E0,0E0,0E0,0E0,0E0,0E0,0E0],"parents":[2147483647,0,0,1,1,3,3,4,4,5,5,6,6,7,7,8,8,9,9,10,10,12,12,13,13,14,14,15,15,16,16,17,17,20,20,23,23,27,27,28,28,29,29,30,30],"right_children":[2,4,-1,6,8,10,12,14,16,18,20,-1,22,24,26,28,30,32,-1,-1,34,-1,-1,36,-1,-1,-1,38,40,42,44,-1,-1,-1,-1,-1,-1,-1,-1,-1,-1,-1,-1,-1,-1],"split_conditions":[3.623E1,1.4465E4,4.810753E-2,1.37E1,1.65E4,8.12E0,1.15E4,1.5001E4,2E4,7.15E0,2.135E3,2.9626848E-2,1.489E1,2.045E1,6.76E0,6.82E0,2.3E4,5.71E0,4.4304322E-2,1.8267632E-2,9.9E0,7.3752883E-3,-7.144976E-3,5.97E0,2.683611E-2,1.1915351E-2,4.47789E-2,5.87E0,8E0,8.89E0,3E4,-7.194282E-4,-2.778057E-2,-6.98747E-2,-5.8942083E-3,6.70409E-3,-1.3165463E-2,-4.293908E-3,1.1378575E-2,-5.9592485E-2,-1.5972758E-2,2.0709222E-3,5.8939435E-2,-8.840382E-3,1.265573E-3],"split_indices":[0,1,0,0,1,0,1,1,1,0,1,0,0,0,0,0,1,0,0,0,0,0,0,0,0,0,0,0,6,0,1,0,0,0,0,0,0,0,0,0,0,0,0,0,0],"split_type":[0,0,0,0,0,0,0,0,0,0,0,0,0,0,0,0,0,0,0,0,0,0,0,0,0,0,0,0,0,0,0,0,0,0,0,0,0,0,0,0,0,0,0,0,0],"sum_hessian":[3E2,2.99E2,1E0,6.5E1,2.34E2,6.1E1,4E0,1.7E1,2.17E2,5.4E1,7E0,2E0,2E0,1.1E1,6E0,1.6E1,2.01E2,5.2E1,2E0,1E0,6E0,1E0,1E0,1E1,1E0,2E0,4E0,1.2E1,4E0,1.2E1,1.89E2,4.7E1,5E0,3E0,3E0,7E0,3E0,1E1,2E0,2E0,2E0,9E0,3E0,3E1,1.59E2],"tree_param":{"num_deleted":"0","num_feature":"7","num_nodes":"45","size_leaf_vector":"1"}},{"base_weights":[1.1801346E-3,-3.1904835E-4,8.999558E-2,-1.9703126E-2,1.5350144E-3,4.6696853E-2,-5.6635537E-3,-2.4429465E-2,1.23991035E-2,8.356441E-3,-6.6740788E-3,-1.0247898E-2,7.699299E-3,-1.2249434E-2,-1.9748306E-2,4.7617275E-3,2.9687138E-4,4.1170875E-3,6.398979E-2,-2.1178918E-1,1.9280011E-3,-3.0321881E-2,1.6390415E-2,6.5684523E-3,-1.15737915E-1,-2.8026637E-1,-2.1814682E-2,6.60698E-2,-7.864349E-3,-2.6172728E-3,-9.447657E-3,1.2266517E-2,4.2290764E-4,9.183874E-4,1.6082702E-2,2.2810651E-2,-7.4892715E-2,-2.3234976E-2,-1.02884896E-1,4.688247E-2,6.8935575E-3,-4.534532E-2,-6.5044814E-4],"categories":[],"categories_nodes":[],"categories_segments":[],"categories_sizes":[],"default_left":[0,0,0,0,0,0,0,0,0,0,0,0,0,0,0,0,0,0,0,0,0,0,0,0,0,0,0,0,0,0,0,0,0,0,0,0,0,0,0,0,0,0,0],"id":29,"left_children":[1,3,5,7,9,-1,11,13,15,17,19,-1,-1,21,-1,-1,-1,23,-1,25,27,29,31,33,35,37,-1,39,41,-1,-1,-1,-1,-1,-1,-1,-1,-1,-1,-1,-1,-1,-1],"loss_changes":[4.010704E-2,1.0704215E-2,3.2286745E-2,4.24778E-3,1.52871525E-2,0E0,3.5548527E-3,1.0790974E-2,1.4280895E-4,1.2857676E-1,2.1919598E-1,0E0,0E0,1.0331239E-2,0E0,0E0,0E0,4.3950047E-2,0E0,2.7237102E-2,7.589146E-2,2.8565526E-5,2.8783386E-3,2.3757812E-2,9.6019626E-2,1.1578187E-2,0E0,5.8601856E-2,8.537203E-2,0E0,0E0,0E0,0E0,0E0,0E0,0E0,0E0,0E0,0E0,0E0,0E0,0E0,0E0],"parents":[2147483647,0,0,1,1,2,2,3,3,4,4,6,6,7,7,8,8,9,9,10,10,13,13,17,17,19,19,20,20,21,21,22,22,23,23,24,24,25,25,27,27,28,28],"right_children":[2,4,6,8,10,-1,12,14,16,18,20,-1,-1,22,-1,-1,-1,24,-1,26,28,30,32,34,36,38,-1,40,42,-1,-1,-1,-1,-1,-1,-1,-1,-1,-1,-1,-1,-1,-1],"split_conditions":[3.596E1,5.8E-1,9E0,5.0024E4,3.6E4,4.6696853E-2,4.1442E4,3.2322E4,5.4E-1,3.5866E4,3.61E4,-1.0247898E-2,7.699299E-3,1.8796E4,-1.9748306E-2,4.7617275E-3,2.9687138E-4,2.373E1,6.398979E-2,9E0,4.0023E4,1E3,8E0,3.3988E4,1.5001E4,6.82E0,-2.1814682E-2,6.79E0,4.0324E4,-2.6172728E-3,-9.447657E-3,1.2266517E-2,4.2290764E-4,9.183874E-4,1.6082702E-2,2.2810651E-2,-7.4892715E-2,-2.3234976E-2,-1.02884896E-1,4.688247E-2,6.8935575E-3,-4.534532E-2,-6.5044814E-4],"split_indices":[0,0,6,1,1,0,1,1,0,1,1,0,0,1,0,0,0,0,0,6,1,1,6,1,1,0,0,0,1,0,0,0,0,0,0,0,0,0,0,0,0,0,0],"split_type":[0,0,0,0,0,0,0,0,0,0,0,0,0,0,0,0,0,0,0,0,0,0,0,0,0,0,0,0,0,0,0,0,0,0,0,0,0,0,0,0,0,0,0],"sum_hessian":[3E2,2.96E2,4E0,2.5E1,2.71E2,2E0,2E0,2.2E1,3E0,1.48E2,1.23E2,1E0,1E0,1.8E1,4E0,2E0,1E0,1.46E2,2E0,4E0,1.19E2,1.1E1,7E0,1.44E2,2E0,2E0,2E0,1.5E1,1.04E2,1E0,1E1,2E0,5E0,1.35E2,9E0,1E0,1E0,1E0,1E0,4E0,1.1E1,3E0,1.01E2],"tree_param":{"num_deleted":"0","num_feature":"7","num_nodes":"43","size_leaf_vector":"1"}},{"base_weights":[5.5644964E-4,-6.452573E-4,7.1826555E-2,3.809545E-6,-1.9276526E-2,3.7357524E-2,-4.814148E-3,1.2036986E-3,-2.8393881E-2,-8.710671E-3,6.544304E-3,5.5036154E-3,-6.522659E-3,-1.269097E-2,-2.1381687E-2,2.444148E-2,-2.613332E-3,-9.06856E-3,1.01279E-2,-5.3618275E-2,1.2509058E-2,2.2551501E-3,2.9954756E-2,-2.6053913E-2,1.558463E-3,-1.5783757E-3,-9.276587E-3,1.0101585E-2,-7.970741E-4,-4.1000214E-3,-1.8713964E-2,7.1292394E-3,-3.1257244E-3],"categories":[],"categories_nodes":[],"categories_segments":[],"categories_sizes":[],"default_left":[0,0,0,0,0,0,0,0,0,0,0,0,0,0,0,0,0,0,0,0,0,0,0,0,0,0,0,0,0,0,0,0,0],"id":30,"left_children":[1,3,5,7,-1,-1,9,11,13,-1,-1,15,17,19,-1,21,23,25,27,29,31,-1,-1,-1,-1,-1,-1,-1,-1,-1,-1,-1,-1],"loss_changes":[2.5825726E-2,1.2262492E-2,2.0793736E-2,1.008603E-2,0E0,0E0,2.5683318E-3,9.471144E-3,7.175277E-3,0E0,0E0,2.8194204E-2,4.4156946E-3,1.0984408E-2,0E0,6.9441706E-2,8.529563E-2,7.242342E-3,4.3035513E-3,5.476279E-4,2.0540054E-3,0E0,0E0,0E0,0E0,0E0,0E0,0E0,0E0,0E0,0E0,0E0,0E0],"parents":[2147483647,0,0,1,1,2,2,3,3,6,6,7,7,8,8,11,11,12,12,13,13,15,15,16,16,17,17,18,18,19,19,20,20],"right_children":[2,4,6,8,-1,-1,10,12,14,-1,-1,16,18,20,-1,22,24,26,28,30,32,-1,-1,-1,-1,-1,-1,-1,-1,-1,-1,-1,-1],"split_conditions":[3.596E1,2E0,9E0,1.7E1,-1.9276526E-2,3.7357524E-2,4.1442E4,1E0,1E0,-8.710671E-3,6.544304E-3,6.8E0,1.3E1,1.8E1,-2.1381687E-2,6.1E0,7.13E0,3.3019E4,2.76E4,7.87E-1,9.2233E4,2.2551501E-3,2.9954756E-2,-2.6053913E-2,1.558463E-3,-1.5783757E-3,-9.276587E-3,1.0101585E-2,-7.970741E-4,-4.1000214E-3,-1.8713964E-2,7.1292394E-3,-3.1257244E-3],"split_indices":[0,2,6,6,0,0,1,3,4,0,0,0,6,6,0,0,0,1,1,0,1,0,0,0,0,0,0,0,0,0,0,0,0],"split_type":[0,0,0,0,0,0,0,0,0,0,0,0,0,0,0,0,0,0,0,0,0,0,0,0,0,0,0,0,0,0,0,0,0],"sum_hessian":[3E2,2.96E2,4E0,2.94E2,2E0,2E0,2E0,2.83E2,1.1E1,1E0,1E0,1.82E2,1.01E2,9E0,2E0,5.4E1,1.28E2,8.8E1,1.3E1,3E0,6E0,4.5E1,9E0,1E1,1.18E2,7.6E1,1.2E1,4E0,9E0,1E0,2E0,4E0,2E0],"tree_param":{"num_deleted":"0","num_feature":"7","num_nodes":"33","size_leaf_vector":"1"}},{"base_weights":[3.293966E-4,-2.9802765E-4,2.8283501E-2,5.247053E-3,-5.5891243E-3,2.65611E-3,1.2872696E-1,5.94209E-2,-6.835446E-3,8.7730475E-3,-2.1084584E-2,5.7302285E-2,6.248474E-4,6.6497107E-4,2.6074434E-2,-4.1501477E-2,-3.567633E-3,4.463786E-3,5.0880197E-2,-2.300613E-1,2.0587987E-3,-2.7166678E-2,-3.2027867E-2,2.9097367E-2,-7.1404073E-3,2.5443905E-3,-2.0779515E-2,-1.5841663E-2,-8.768592E-2,3.8913775E-2,-5.5344477E-3,-9.719467E-3,-2.0179154E-4,1.1147665E-2,-1.1355347E-2,-3.045016E-2,-9.7397354E-4],"categories":[],"categories_nodes":[],"categories_segments":[],"categories_sizes":[],"default_left":[0,0,0,0,0,0,0,0,0,0,0,0,0,0,0,0,0,0,0,0,0,0,0,0,0,0,0,0,0,0,0,0,0,0,0,0,0],"id":31,"left_children":[1,3,-1,5,7,9,11,13,15,17,19,-1,-1,-1,-1,21,23,25,-1,27,29,31,-1,33,35,-1,-1,-1,-1,-1,-1,-1,-1,-1,-1,-1,-1],"loss_changes":[1.7770797E-2,8.831195E-3,0E0,4.668771E-2,1.2883777E-2,2.1241926E-2,2.3264613E-2,4.525653E-3,1.7070819E-2,7.963654E-2,1.455665E-1,0E0,0E0,0E0,0E0,9.260697E-3,1.6546423E-2,3.435503E-2,0E0,1.7654926E-2,7.56911E-2,1.6414635E-3,0E0,8.962396E-3,4.633309E-2,0E0,0E0,0E0,0E0,0E0,0E0,0E0,0E0,0E0,0E0,0E0,0E0],"parents":[2147483647,0,0,1,1,3,3,4,4,5,5,6,6,7,7,8,8,9,9,10,10,15,15,16,16,17,17,19,19,20,20,21,21,23,23,24,24],"right_children":[2,4,-1,6,8,10,12,14,16,18,20,-1,-1,-1,-1,22,24,26,-1,28,30,32,-1,34,36,-1,-1,-1,-1,-1,-1,-1,-1,-1,-1,-1,-1],"split_conditions":[3.623E1,9E0,2.8283501E-2,6.0241E4,5.4E3,3.6E4,9.54E0,6.4E-1,1.5E4,3.5775E4,3.6054E4,5.7302285E-2,6.248474E-4,6.6497107E-4,2.6074434E-2,2.69E0,2.2517E4,1.977E1,5.0880197E-2,6.82E0,3.86E4,1.2E1,-3.2027867E-2,1E0,2.4E4,2.5443905E-3,-2.0779515E-2,-1.5841663E-2,-8.768592E-2,3.8913775E-2,-5.5344477E-3,-9.719467E-3,-2.0179154E-4,1.1147665E-2,-1.1355347E-2,-3.045016E-2,-9.7397354E-4],"split_indices":[0,6,0,1,1,1,0,0,1,1,1,0,0,0,0,0,1,0,0,0,1,6,0,5,1,0,0,0,0,0,0,0,0,0,0,0,0],"split_type":[0,0,0,0,0,0,0,0,0,0,0,0,0,0,0,0,0,0,0,0,0,0,0,0,0,0,0,0,0,0,0,0,0,0,0,0,0],"sum_hessian":[3E2,2.99E2,1E0,1.46E2,1.53E2,1.44E2,2E0,2E0,1.51E2,1.15E2,2.9E1,1E0,1E0,1E0,1E0,1.2E1,1.39E2,1.13E2,2E0,2E0,2.7E1,1.1E1,1E0,1.3E1,1.26E2,1.08E2,5E0,1E0,1E0,3E0,2.4E1,9E0,2E0,1.2E1,1E0,4E0,1.22E2],"tree_param":{"num_deleted":"0","num_feature":"7","num_nodes":"37","size_leaf_vector":"1"}},{"base_weights":[2.3680358E-4,-1.0760834E-3,3.8549423E-2,-3.3937034E-5,-7.610214E-2,6.866646E-2,7.0269904E-3,-2.0635915E-3,3.0638285E-2,2.2272207E-2,-1.509633E-1,6.721878E-3,2.761135E-2,-2.2648573E-2,4.425208E-2,-4.928416E-4,-6.1457295E-2,6.412203E-2,-1.9231647E-2,-7.157636E-3,-6.0775854E-2,-1.2040187E-2,-3.4421284E-3,2.1446086E-2,-1.5326501E-3,-1.3228568E-2,3.3613432E-3,-2.014246E-2,-1.0982958E-1,2.8513027E-2,-1.3751268E-2,-1.7150307E-2,2.9416482E-3,-7.2578434E-3,5.7088854E-3,-5.759805E-4,-2.6796557E-2,1.3163972E-2,-2.0531144E-5,-1.03113055E-2,5.5157663E-3,-6.9200997E-3,-4.2503215E-2,-1.1417104E-2,8.874893E-3,-1.6119719E-3,3.914285E-3],"categories":[],"categories_nodes":[],"categories_segments":[],"categories_sizes":[],"default_left":[0,0,0,0,0,0,0,0,0,0,0,0,0,0,0,0,0,0,0,0,0,0,0,0,0,0,0,0,0,0,0,0,0,0,0,0,0,0,0,0,0,0,0,0,0,0,0],"id":32,"left_children":[1,3,5,7,9,11,13,15,17,-1,19,-1,-1,21,23,25,27,29,31,-1,-1,-1,33,-1,-1,35,37,39,41,-1,43,-1,45,-1,-1,-1,-1,-1,-1,-1,-1,-1,-1,-1,-1,-1,-1],"loss_changes":[1.5181825E-2,2.2828352E-2,9.011104E-3,1.8054634E-2,5.6226976E-2,3.343599E-3,7.6303E-3,2.5345314E-2,3.1290147E-2,0E0,1.4851041E-2,0E0,0E0,1.2051817E-3,4.398229E-3,1.31013E-2,1.1777215E-2,2.7794424E-2,6.8975035E-3,0E0,0E0,0E0,1.859292E-3,0E0,0E0,5.3180188E-2,2.8491803E-2,3.3729556E-3,5.02152E-3,0E0,5.338923E-3,0E0,5.7428784E-4,0E0,0E0,0E0,0E0,0E0,0E0,0E0,0E0,0E0,0E0,0E0,0E0,0E0,0E0],"parents":[2147483647,0,0,1,1,2,2,3,3,4,4,5,5,6,6,7,7,8,8,10,10,13,13,14,14,15,15,16,16,17,17,18,18,22,22,25,25,26,26,27,27,28,28,30,30,32,32],"right_children":[2,4,6,8,10,12,14,16,18,-1,20,-1,-1,22,24,26,28,30,32,-1,-1,-1,34,-1,-1,36,38,40,42,-1,44,-1,46,-1,-1,-1,-1,-1,-1,-1,-1,-1,-1,-1,-1,-1,-1],"split_conditions":[3.061E1,2.373E1,9E0,1.489E1,1.5001E4,3.596E1,9E4,1.374E1,1.2E1,2.2272207E-2,2.539E1,6.721878E-3,2.761135E-2,3.596E1,1.27E5,1.4465E4,1E0,1.977E1,1.861E1,-7.157636E-3,-6.0775854E-2,-1.2040187E-2,4.1442E4,2.1446086E-2,-1.5326501E-3,8.12E0,1.65E4,1.479E1,1.468E1,2.8513027E-2,2.278E1,-1.7150307E-2,2.091E1,-7.2578434E-3,5.7088854E-3,-5.759805E-4,-2.6796557E-2,1.3163972E-2,-2.0531144E-5,-1.03113055E-2,5.5157663E-3,-6.9200997E-3,-4.2503215E-2,-1.1417104E-2,8.874893E-3,-1.6119719E-3,3.914285E-3],"split_indices":[0,0,6,0,1,0,1,0,6,0,0,0,0,0,1,1,2,0,0,0,0,0,1,0,0,0,1,0,0,0,0,0,0,0,0,0,0,0,0,0,0,0,0,0,0,0,0],"split_type":[0,0,0,0,0,0,0,0,0,0,0,0,0,0,0,0,0,0,0,0,0,0,0,0,0,0,0,0,0,0,0,0,0,0,0,0,0,0,0,0,0,0,0,0,0,0,0],"sum_hessian":[3E2,2.91E2,9E0,2.88E2,3E0,4E0,5E0,2.71E2,1.7E1,1E0,2E0,2E0,2E0,3E0,2E0,2.65E2,6E0,1E1,7E0,1E0,1E0,1E0,2E0,1E0,1E0,6.1E1,2.04E2,4E0,2E0,7E0,3E0,2E0,5E0,1E0,1E0,5.4E1,7E0,1.5E1,1.89E2,3E0,1E0,1E0,1E0,2E0,1E0,3E0,2E0],"tree_param":{"num_deleted":"0","num_feature":"7","num_nodes":"47","size_leaf_vector":"1"}},{"base_weights":[-4.129342E-5,-1.1059424E-3,3.1050587E-2,-2.2210328E-4,-6.4686835E-2,5.4933548E-2,5.973021E-3,-1.6961531E-3,2.2064766E-2,1.8931389E-2,-1.2831886E-1,5.377579E-3,2.2089196E-2,-1.9251347E-2,3.7614506E-2,-3.9847035E-4,-5.0765786E-2,4.72465E-2,-1.5318215E-2,-6.084001E-3,-5.165949E-2,-1.0234166E-2,-2.9258728E-3,1.8229151E-2,-1.3026238E-3,-8.563297E-3,3.9677788E-3,-1.5058994E-2,-9.335518E-2,7.0094585E-2,-1.0261297E-2,-1.3720227E-2,2.4427574E-3,-6.169224E-3,4.8525813E-3,-4.968064E-4,-2.4523832E-2,2.6137585E-2,4.495891E-4,2.7742388E-3,-1.0303737E-2,-5.88212E-3,-3.6127713E-2,2.6799489E-2,1.220581E-2,-9.133626E-3,7.5436593E-3,-1.2493194E-3,3.1314136E-3],"categories":[],"categories_nodes":[],"categories_segments":[],"categories_sizes":[],"default_left":[0,0,0,0,0,0,0,0,0,0,0,0,0,0,0,0,0,0,0,0,0,0,0,0,0,0,0,0,0,0,0,0,0,0,0,0,0,0,0,0,0,0,0,0,0,0,0,0,0],"id":33,"left_children":[1,3,5,7,9,11,13,15,17,-1,19,-1,-1,21,23,25,27,29,31,-1,-1,-1,33,-1,-1,35,37,39,41,43,45,-1,47,-1,-1,-1,-1,-1,-1,-1,-1,-1,-1,-1,-1,-1,-1,-1,-1],"loss_changes":[9.9980235E-3,1.6394656E-2,5.661146E-3,9.531639E-3,4.0624037E-2,2.1398896E-3,5.5129486E-3,1.7299864E-2,1.766836E-2,0E0,1.0729864E-2,0E0,0E0,8.707389E-4,3.177642E-3,9.516789E-3,9.239279E-3,1.5172636E-2,4.4334414E-3,0E0,0E0,0E0,1.3433592E-3,0E0,0E0,4.6875555E-2,3.5596542E-2,2.6615793E-3,3.6280043E-3,8.913204E-4,3.6241885E-3,0E0,3.604248E-4,0E0,0E0,0E0,0E0,0E0,0E0,0E0,0E0,0E0,0E0,0E0,0E0,0E0,0E0,0E0,0E0],"parents":[2147483647,0,0,1,1,2,2,3,3,4,4,5,5,6,6,7,7,8,8,10,10,13,13,14,14,15,15,16,16,17,17,18,18,22,22,25,25,26,26,27,27,28,28,29,29,30,30,32,32],"right_children":[2,4,6,8,10,12,14,16,18,-1,20,-1,-1,22,24,26,28,30,32,-1,-1,-1,34,-1,-1,36,38,40,42,44,46,-1,48,-1,-1,-1,-1,-1,-1,-1,-1,-1,-1,-1,-1,-1,-1,-1,-1],"split_conditions":[3.061E1,2.373E1,9E0,1.489E1,1.5001E4,3.596E1,9E4,1.374E1,1.2E1,1.8931389E-2,2.539E1,5.377579E-3,2.2089196E-2,3.596E1,1.27E5,2E4,1E0,1.977E1,1.861E1,-6.084001E-3,-5.165949E-2,-1.0234166E-2,4.1442E4,1.8229151E-2,-1.3026238E-3,9.85E0,2.1E4,5.6001E4,1.468E1,1E1,2.278E1,-1.3720227E-2,2.091E1,-6.169224E-3,4.8525813E-3,-4.968064E-4,-2.4523832E-2,2.6137585E-2,4.495891E-4,2.7742388E-3,-1.0303737E-2,-5.88212E-3,-3.6127713E-2,2.6799489E-2,1.220581E-2,-9.133626E-3,7.5436593E-3,-1.2493194E-3,3.1314136E-3],"split_indices":[0,0,6,0,1,0,1,0,6,0,0,0,0,0,1,1,2,0,0,0,0,0,1,0,0,0,1,1,0,6,0,0,0,0,0,0,0,0,0,0,0,0,0,0,0,0,0,0,0],"split_type":[0,0,0,0,0,0,0,0,0,0,0,0,0,0,0,0,0,0,0,0,0,0,0,0,0,0,0,0,0,0,0,0,0,0,0,0,0,0,0,0,0,0,0,0,0,0,0,0,0],"sum_hessian":[3E2,2.91E2,9E0,2.88E2,3E0,4E0,5E0,2.71E2,1.7E1,1E0,2E0,2E0,2E0,3E0,2E0,2.65E2,6E0,1E1,7E0,1E0,1E0,1E0,2E0,1E0,1E0,9.2E1,1.73E2,4E0,2E0,7E0,3E0,2E0,5E0,1E0,1E0,8.5E1,7E0,4E0,1.69E2,2E0,2E0,1E0,1E0,3E0,4E0,2E0,1E0,3E0,2E0],"tree_param":{"num_deleted":"0","num_feature":"7","num_nodes":"49","size_leaf_vector":"1"}},{"base_weights":[-1.2314066E-4,5.4390617E-3,-5.4678344E-3,3.2711285E-3,1.0913213E-1,5.1222995E-2,-6.5507595E-3,4.581247E-3,-2.800441E-2,4.8642542E-2,4.6691895E-4,7.261433E-4,2.2324204E-2,-3.901683E-2,-4.476139E-3,-3.02379E-3,2.7691603E-2,-2.1341655E-2,-2.7062738E-2,2.6358895E-3,-1.3160541E-2,3.888209E-3,-8.10238E-2,7.4938856E-2,3.9052581E-3,-3.948053E-2,-2.5622249E-3,-2.2840446E-3,3.8902666E-2,-1.6222024E-1,-5.853562E-3,2.0111293E-5,3.8989358E-2,4.8656465E-4,-5.5420913E-2,3.9129578E-2,-6.8786147E-4,1.9104434E-2,-1.4283127E-2,-3.0094655E-3,-1.3785902E-2,3.2659413E-3,-4.547054E-3,7.369745E-4,-2.7179934E-2,-5.8091857E-2,-1.4907253E-2,-1.11731235E-2,2.2590447E-3],"categories":[],"categories_nodes":[],"categories_segments":[],"categories_sizes":[],"default_left":[0,0,0,0,0,0,0,0,0,0,0,0,0,0,0,0,0,0,0,0,0,0,0,0,0,0,0,0,0,0,0,0,0,0,0,0,0,0,0,0,0,0,0,0,0,0,0,0,0],"id":34,"left_children":[1,3,5,7,9,11,13,15,-1,-1,-1,-1,-1,17,19,21,23,25,-1,27,29,31,33,35,37,39,41,43,-1,45,47,-1,-1,-1,-1,-1,-1,-1,-1,-1,-1,-1,-1,-1,-1,-1,-1,-1,-1],"loss_changes":[8.977949E-3,3.2913364E-2,9.789907E-3,1.89087E-2,1.685531E-2,3.2152226E-3,1.0063283E-2,2.5568223E-2,0E0,0E0,0E0,0E0,0E0,6.2182844E-3,8.928664E-3,5.9619997E-2,4.0165562E-2,2.6239438E-3,0E0,5.0298322E-2,6.984687E-2,4.913072E-2,7.744218E-2,5.172897E-2,8.0017164E-2,3.0145142E-4,1.0119106E-3,3.2878973E-2,0E0,9.846613E-4,2.6747828E-2,0E0,0E0,0E0,0E0,0E0,0E0,0E0,0E0,0E0,0E0,0E0,0E0,0E0,0E0,0E0,0E0,0E0,0E0],"parents":[2147483647,0,0,1,1,2,2,3,3,4,4,5,5,6,6,7,7,13,13,14,14,15,15,16,16,17,17,19,19,20,20,21,21,22,22,23,23,24,24,25,25,26,26,27,27,29,29,30,30],"right_children":[2,4,6,8,10,12,14,16,-1,-1,-1,-1,-1,18,20,22,24,26,-1,28,30,32,34,36,38,40,42,44,-1,46,48,-1,-1,-1,-1,-1,-1,-1,-1,-1,-1,-1,-1,-1,-1,-1,-1,-1,-1],"split_conditions":[9E0,6.0241E4,5.4E3,6.0076E4,9.54E0,6.4E-1,1.18E4,9.95E0,-2.800441E-2,4.8642542E-2,4.6691895E-4,7.261433E-4,2.2324204E-2,2.69E0,7E0,8.93E0,1.36E1,9.4E-1,-2.7062738E-2,6.82E0,7.13E0,8.89E0,1.6E4,3.8488E4,2.35E4,8.3E-1,7E3,6.8E0,3.8902666E-2,3.55E4,4.5078E4,2.0111293E-5,3.8989358E-2,4.8656465E-4,-5.5420913E-2,3.9129578E-2,-6.8786147E-4,1.9104434E-2,-1.4283127E-2,-3.0094655E-3,-1.3785902E-2,3.2659413E-3,-4.547054E-3,7.369745E-4,-2.7179934E-2,-5.8091857E-2,-1.4907253E-2,-1.11731235E-2,2.2590447E-3],"split_indices":[6,1,1,1,0,0,1,0,0,0,0,0,0,0,0,0,0,0,0,0,0,0,1,1,1,0,1,0,0,1,1,0,0,0,0,0,0,0,0,0,0,0,0,0,0,0,0,0,0],"split_type":[0,0,0,0,0,0,0,0,0,0,0,0,0,0,0,0,0,0,0,0,0,0,0,0,0,0,0,0,0,0,0,0,0,0,0,0,0,0,0,0,0,0,0,0,0,0,0,0,0],"sum_hessian":[3E2,1.47E2,1.53E2,1.45E2,2E0,2E0,1.51E2,1.44E2,1E0,1E0,1E0,1E0,1E0,8E0,1.43E2,1.09E2,3.5E1,7E0,1E0,7.9E1,6.4E1,1.01E2,8E0,1.1E1,2.4E1,3E0,4E0,7.7E1,2E0,2E0,6.2E1,9.9E1,2E0,5E0,3E0,6E0,5E0,1.1E1,1.3E1,1E0,2E0,2E0,2E0,7.4E1,3E0,1E0,1E0,1.8E1,4.4E1],"tree_param":{"num_deleted":"0","num_feature":"7","num_nodes":"49","size_leaf_vector":"1"}},{"base_weights":[-2.2936548E-4,2.4018625E-3,-1.3174637E-2,8.9034496E-4,9.551549E-2,-4.011978E-2,-8.3305687E-4,-6.023769E-3,9.203877E-3,3.9060883E-2,-1.2820244E-3,1.6978478E-2,-8.6416036E-2,4.1346148E-2,-8.732314E-3,-1.902796E-4,-7.229612E-2,1.5110712E-1,2.6101146E-3,2.3882158E-2,-2.4883747E-3,-3.4271173E-2,7.3054633E-3,-3.8668282E-2,3.1173779E-3,-7.2997324E-3,4.2871978E-2,-4.763055E-2,-4.784278E-2,5.137126E-4,7.539944E-2,4.248877E-2,-1.3120108E-3,9.237695E-3,-1.6002931E-3,-2.6980164E-3,1.5782476E-3,8.50296E-3,-5.215502E-3,-7.3287636E-3,-6.854205E-2,4.473095E-2,-8.68618E-3,-1.0188064E-3,-1.910917E-2,1.6893331E-2,-2.783897E-2,-2.897348E-2,3.2929186E-4,-2.799225E-3,3.0303956E-3,-3.1646527E-2,8.1221695E-4,1.0918223E-3,-3.075084E-3,2.0057203E-3,-2.6706131E-2,-2.9169846E-2,9.7231247E-4],"categories":[],"categories_nodes":[],"categories_segments":[],"categories_sizes":[],"default_left":[0,0,0,0,0,0,0,0,0,0,0,0,0,0,0,0,0,0,0,0,0,0,0,0,0,0,0,0,0,0,0,0,0,0,0,0,0,0,0,0,0,0,0,0,0,0,0,0,0,0,0,0,0,0,0,0,0,0,0],"id":35,"left_children":[1,3,5,7,9,11,13,15,17,-1,-1,19,21,-1,23,25,27,29,31,33,35,-1,37,39,41,43,45,47,-1,49,-1,-1,51,-1,-1,-1,-1,-1,-1,53,55,-1,57,-1,-1,-1,-1,-1,-1,-1,-1,-1,-1,-1,-1,-1,-1,-1,-1],"loss_changes":[1.0284294E-2,3.5241425E-2,1.6926404E-2,1.4310656E-2,1.4402095E-2,4.3762174E-2,4.0632855E-2,5.256372E-2,1.0533702E-1,0E0,0E0,1.1345709E-3,2.4301574E-2,0E0,1.2536164E-2,3.888774E-2,1.6057812E-2,7.533653E-2,5.9618108E-2,1.3755984E-3,1.9853856E-4,0E0,2.0510415E-3,8.859968E-3,4.6097085E-2,2.3781074E-2,3.8044274E-2,2.395734E-2,0E0,3.7740733E-4,0E0,0E0,4.5089357E-2,0E0,0E0,0E0,0E0,0E0,0E0,2.2956709E-4,8.297883E-3,0E0,2.671802E-2,0E0,0E0,0E0,0E0,0E0,0E0,0E0,0E0,0E0,0E0,0E0,0E0,0E0,0E0,0E0,0E0],"parents":[2147483647,0,0,1,1,2,2,3,3,4,4,5,5,6,6,7,7,8,8,11,11,12,12,14,14,15,15,16,16,17,17,18,18,19,19,20,20,22,22,23,23,24,24,25,25,26,26,27,27,29,29,32,32,39,39,40,40,42,42],"right_children":[2,4,6,8,10,12,14,16,18,-1,-1,20,22,-1,24,26,28,30,32,34,36,-1,38,40,42,44,46,48,-1,50,-1,-1,52,-1,-1,-1,-1,-1,-1,54,56,-1,58,-1,-1,-1,-1,-1,-1,-1,-1,-1,-1,-1,-1,-1,-1,-1,-1],"split_conditions":[5.6701E4,5.5138E4,6.1381E4,6.1E0,1.1E1,6.8E0,6.2E4,5.71E0,6.79E0,3.9060883E-2,-1.2820244E-3,4.6E0,1.346E1,4.1346148E-2,7.27E0,4.6E0,6.05E0,1.9434E4,3.493E3,1.3E1,5.97E0,-3.4271173E-2,1.854E1,2.37E0,7.7E0,4.41E0,5.42E4,5.87E0,-4.784278E-2,6.49E0,7.539944E-2,4.248877E-2,7E3,9.237695E-3,-1.6002931E-3,-2.6980164E-3,1.5782476E-3,8.50296E-3,-5.215502E-3,5.4E-1,6.5E4,4.473095E-2,9.29E0,-1.0188064E-3,-1.910917E-2,1.6893331E-2,-2.783897E-2,-2.897348E-2,3.2929186E-4,-2.799225E-3,3.0303956E-3,-3.1646527E-2,8.1221695E-4,1.0918223E-3,-3.075084E-3,2.0057203E-3,-2.6706131E-2,-2.9169846E-2,9.7231247E-4],"split_indices":[1,1,1,0,6,0,1,0,0,0,0,0,0,0,0,0,0,1,1,6,0,0,0,0,0,0,1,0,0,0,0,0,1,0,0,0,0,0,0,0,1,0,0,0,0,0,0,0,0,0,0,0,0,0,0,0,0,0,0],"split_type":[0,0,0,0,0,0,0,0,0,0,0,0,0,0,0,0,0,0,0,0,0,0,0,0,0,0,0,0,0,0,0,0,0,0,0,0,0,0,0,0,0,0,0,0,0,0,0,0,0,0,0,0,0,0,0,0,0,0,0],"sum_hessian":[3E2,2.5E2,5E1,2.47E2,3E0,1.5E1,3.5E1,1.35E2,1.12E2,2E0,1E0,7E0,8E0,1E0,3.4E1,1.25E2,1E1,4E0,1.08E2,5E0,2E0,6E0,2E0,9E0,2.5E1,1.08E2,1.7E1,9E0,1E0,2E0,2E0,2E0,1.06E2,4E0,1E0,1E0,1E0,1E0,1E0,5E0,4E0,1E0,2.4E1,1.02E2,6E0,1.6E1,1E0,4E0,5E0,1E0,1E0,3E0,1.03E2,1E0,4E0,1E0,3E0,2E0,2.2E1],"tree_param":{"num_deleted":"0","num_feature":"7","num_nodes":"59","size_leaf_vector":"1"}},{"base_weights":[-8.006032E-5,5.1012484E-4,-1.766255E-2,-5.105331E-4,3.0058194E-2,2.841833E-4,-5.7403803E-2,5.45372E-2,4.649321E-3,1.380712E-3,-2.4959657E-2,1.3104058E-2,-1.0565853E-1,6.9961553E-3,2.0272447E-2,-1.5389442E-2,2.98179E-2,4.4116724E-4,8.673223E-2,-4.4688538E-2,-1.4475733E-4,-5.6560994E-3,-4.189024E-2,-9.183884E-3,-1.1062622E-4,1.50099285E-2,-1.5918732E-3,4.6130174E-4,-8.598101E-3,3.802128E-2,1.0082246E-3,2.3112023E-2,-4.670175E-3,-3.6898614E-3,3.6400796E-3],"categories":[],"categories_nodes":[],"categories_segments":[],"categories_sizes":[],"default_left":[0,0,0,0,0,0,0,0,0,0,0,0,0,0,0,0,0,0,0,0,0,0,0,0,0,0,0,0,0,0,0,0,0,0,0],"id":36,"left_children":[1,3,-1,5,7,9,11,13,15,17,19,-1,21,-1,-1,23,25,27,29,-1,31,-1,-1,-1,33,-1,-1,-1,-1,-1,-1,-1,-1,-1,-1],"loss_changes":[1.0474733E-2,9.032728E-3,0E0,1.31283775E-2,5.9662797E-3,7.978793E-3,2.4126308E-2,4.590759E-4,3.4849637E-3,2.209461E-2,3.6903642E-2,0E0,6.2151253E-3,0E0,0E0,9.2700176E-4,2.395612E-3,8.787396E-3,9.579988E-3,0E0,1.429351E-2,0E0,0E0,0E0,5.96969E-4,0E0,0E0,0E0,0E0,0E0,0E0,0E0,0E0,0E0,0E0],"parents":[2147483647,0,0,1,1,3,3,4,4,5,5,6,6,7,7,8,8,9,9,10,10,12,12,15,15,16,16,17,17,18,18,20,20,24,24],"right_children":[2,4,-1,6,8,10,12,14,16,18,20,-1,22,-1,-1,24,26,28,30,-1,32,-1,-1,-1,34,-1,-1,-1,-1,-1,-1,-1,-1,-1,-1],"split_conditions":[2E0,3.061E1,-1.766255E-2,2.373E1,9E0,8.3E4,1.5001E4,3.596E1,9E4,7.7632E4,8.7934E4,1.3104058E-2,2.539E1,6.9961553E-3,2.0272447E-2,3.596E1,1.27E5,6.9562E4,7.7E0,-4.4688538E-2,8.8E4,-5.6560994E-3,-4.189024E-2,-9.183884E-3,4.1442E4,1.50099285E-2,-1.5918732E-3,4.6130174E-4,-8.598101E-3,3.802128E-2,1.0082246E-3,2.3112023E-2,-4.670175E-3,-3.6898614E-3,3.6400796E-3],"split_indices":[2,0,0,0,6,1,1,0,1,1,1,0,0,0,0,0,1,1,0,0,1,0,0,0,1,0,0,0,0,0,0,0,0,0,0],"split_type":[0,0,0,0,0,0,0,0,0,0,0,0,0,0,0,0,0,0,0,0,0,0,0,0,0,0,0,0,0,0,0,0,0,0,0],"sum_hessian":[3E2,2.98E2,2E0,2.89E2,9E0,2.86E2,3E0,4E0,5E0,2.75E2,1.1E1,1E0,2E0,2E0,2E0,3E0,2E0,2.73E2,2E0,1E0,1E1,1E0,1E0,1E0,2E0,1E0,1E0,2.64E2,9E0,1E0,1E0,1E0,9E0,1E0,1E0],"tree_param":{"num_deleted":"0","num_feature":"7","num_nodes":"35","size_leaf_vector":"1"}},{"base_weights":[-1.0917987E-4,-2.4538606E-2,9.0206944E-4,1.5796066E-3,-3.1025935E-2,8.1895694E-2,-2.2990468E-4,-2.955408E-2,2.7261078E-2,2.3649037E-2,3.849535E-2,-3.80393E-2,7.127846E-4,-3.557408E-3,-1.1219633E-2,-1.440531E-2,1.5508681E-2,1.1223168E-3,9.51975E-3,-1.017822E-2,-2.1538401E-2,7.638908E-2,-9.349348E-4,-7.1832375E-3,7.008478E-4,-1.4902398E-2,1.3077736E-3,4.534133E-3,4.4019796E-2,-5.4887524E-3,4.6914285E-3,-4.7159495E-4,-5.6465627E-3,-4.267696E-3,9.122023E-3,-1.39528465E-5,-3.1237079E-2,4.121309E-2,7.990726E-5],"categories":[],"categories_nodes":[],"categories_segments":[],"categories_sizes":[],"default_left":[0,0,0,0,0,0,0,0,0,0,0,0,0,0,0,0,0,0,0,0,0,0,0,0,0,0,0,0,0,0,0,0,0,0,0,0,0,0,0],"id":37,"left_children":[1,3,5,7,-1,9,11,13,15,17,-1,19,21,-1,-1,23,-1,-1,-1,25,-1,27,29,-1,-1,31,-1,33,-1,35,37,-1,-1,-1,-1,-1,-1,-1,-1],"loss_changes":[7.4581117E-3,2.4886187E-2,2.6606806E-2,8.801265E-3,0E0,7.781144E-3,1.0256514E-2,2.5062542E-4,6.8532806E-3,3.640632E-4,0E0,5.852486E-3,3.511024E-2,0E0,0E0,5.350187E-4,0E0,0E0,0E0,4.0835107E-4,0E0,2.966189E-2,7.097265E-3,0E0,0E0,1.7940544E-4,0E0,2.3740141E-3,0E0,8.2124755E-2,7.276913E-2,0E0,0E0,0E0,0E0,0E0,0E0,0E0,0E0],"parents":[2147483647,0,0,1,1,2,2,3,3,5,5,6,6,7,7,8,8,9,9,11,11,12,12,15,15,19,19,21,21,22,22,25,25,27,27,29,29,30,30],"right_children":[2,4,6,8,-1,10,12,14,16,18,-1,20,22,-1,-1,24,-1,-1,-1,26,-1,28,30,-1,-1,32,-1,34,-1,36,38,-1,-1,-1,-1,-1,-1,-1,-1],"split_conditions":[3E3,2.135E3,3.493E3,1.3E3,-3.1025935E-2,2.28E0,4.3E3,5.7E-1,6.4E-1,8.8E-1,3.849535E-2,1.82E0,5.4E3,-3.557408E-3,-1.1219633E-2,5.2E-1,1.5508681E-2,1.1223168E-3,9.51975E-3,1.5E0,-2.1538401E-2,8.7E-1,3.8E4,-7.1832375E-3,7.008478E-4,5.2E-1,1.3077736E-3,7E0,4.4019796E-2,3.6E4,3.86E4,-4.7159495E-4,-5.6465627E-3,-4.267696E-3,9.122023E-3,-1.39528465E-5,-3.1237079E-2,4.121309E-2,7.990726E-5],"split_indices":[1,1,1,1,0,0,1,0,0,0,0,0,1,0,0,0,0,0,0,0,0,0,1,0,0,0,0,6,0,1,1,0,0,0,0,0,0,0,0],"split_type":[0,0,0,0,0,0,0,0,0,0,0,0,0,0,0,0,0,0,0,0,0,0,0,0,0,0,0,0,0,0,0,0,0,0,0,0,0,0,0],"sum_hessian":[3E2,1.1E1,2.89E2,9E0,2E0,3E0,2.86E2,4E0,5E0,2E0,1E0,6E0,2.8E2,2E0,2E0,2E0,3E0,1E0,1E0,4E0,2E0,5E0,2.75E2,1E0,1E0,3E0,1E0,3E0,2E0,1.52E2,1.23E2,1E0,2E0,2E0,1E0,1.45E2,7E0,3E0,1.2E2],"tree_param":{"num_deleted":"0","num_feature":"7","num_nodes":"39","size_leaf_vector":"1"}},{"base_weights":[7.2805415E-5,5.460892E-4,-1.41366245E-2,-5.5514867E-3,4.608106E-3,-2.828684E-3,